digraph Tree {
node [shape=box, style="filled, rounded", color="black", fontname="helvetica"] ;
edge [fontname="helvetica"] ;
0 [label=<Age &le; 14.5<br/>gini = 0.735<br/>samples = 2101<br/>value = [669, 453, 356, 623]<br/>class = A>, fillcolor="#fefbf9"] ;
1 [label=<Age &le; 5.5<br/>gini = 0.656<br/>samples = 707<br/>value = [226.0, 99.0, 53.0, 329.0]<br/>class = D>, fillcolor="#f6d5f9"] ;
0 -> 1 [labeldistance=2.5, labelangle=45, headlabel="True"] ;
2 [label=<Age &le; 2.5<br/>gini = 0.582<br/>samples = 208<br/>value = [52.0, 25.0, 10.0, 121.0]<br/>class = D>, fillcolor="#eda7f4"] ;
1 -> 2 ;
3 [label=<Graduated &le; 0.5<br/>gini = 0.61<br/>samples = 114<br/>value = [37.0, 14.0, 4.0, 59.0]<br/>class = D>, fillcolor="#f4c6f8"] ;
2 -> 3 ;
4 [label=<Profession &le; 4.0<br/>gini = 0.619<br/>samples = 110<br/>value = [37.0, 14.0, 4.0, 55.0]<br/>class = D>, fillcolor="#f5cef9"] ;
3 -> 4 ;
5 [label=<Age &le; 0.5<br/>gini = 0.571<br/>samples = 14<br/>value = [8, 2, 0, 4]<br/>class = A>, fillcolor="#f5cdb0"] ;
4 -> 5 ;
6 [label=<Profession &le; 2.5<br/>gini = 0.571<br/>samples = 7<br/>value = [2, 1, 0, 4]<br/>class = D>, fillcolor="#efb0f5"] ;
5 -> 6 ;
7 [label=<Family_Size &le; 4.5<br/>gini = 0.32<br/>samples = 5<br/>value = [1, 0, 0, 4]<br/>class = D>, fillcolor="#e16aec"] ;
6 -> 7 ;
8 [label=<gini = 0.0<br/>samples = 3<br/>value = [0, 0, 0, 3]<br/>class = D>, fillcolor="#d739e5"] ;
7 -> 8 ;
9 [label=<Family_Size &le; 7.0<br/>gini = 0.5<br/>samples = 2<br/>value = [1, 0, 0, 1]<br/>class = A>, fillcolor="#ffffff"] ;
7 -> 9 ;
10 [label=<gini = 0.0<br/>samples = 1<br/>value = [1, 0, 0, 0]<br/>class = A>, fillcolor="#e58139"] ;
9 -> 10 ;
11 [label=<gini = 0.0<br/>samples = 1<br/>value = [0, 0, 0, 1]<br/>class = D>, fillcolor="#d739e5"] ;
9 -> 11 ;
12 [label=<Gender &le; 0.5<br/>gini = 0.5<br/>samples = 2<br/>value = [1, 1, 0, 0]<br/>class = A>, fillcolor="#ffffff"] ;
6 -> 12 ;
13 [label=<gini = 0.0<br/>samples = 1<br/>value = [1, 0, 0, 0]<br/>class = A>, fillcolor="#e58139"] ;
12 -> 13 ;
14 [label=<gini = 0.0<br/>samples = 1<br/>value = [0, 1, 0, 0]<br/>class = B>, fillcolor="#47e539"] ;
12 -> 14 ;
15 [label=<Work_Experience &le; 11.0<br/>gini = 0.245<br/>samples = 7<br/>value = [6, 1, 0, 0]<br/>class = A>, fillcolor="#e9965a"] ;
5 -> 15 ;
16 [label=<gini = 0.0<br/>samples = 6<br/>value = [6, 0, 0, 0]<br/>class = A>, fillcolor="#e58139"] ;
15 -> 16 ;
17 [label=<gini = 0.0<br/>samples = 1<br/>value = [0, 1, 0, 0]<br/>class = B>, fillcolor="#47e539"] ;
15 -> 17 ;
18 [label=<ID &le; 45.0<br/>gini = 0.609<br/>samples = 96<br/>value = [29, 12, 4, 51]<br/>class = D>, fillcolor="#f2bef6"] ;
4 -> 18 ;
19 [label=<Work_Experience &le; 2.5<br/>gini = 0.375<br/>samples = 4<br/>value = [3, 1, 0, 0]<br/>class = A>, fillcolor="#eeab7b"] ;
18 -> 19 ;
20 [label=<gini = 0.0<br/>samples = 1<br/>value = [0, 1, 0, 0]<br/>class = B>, fillcolor="#47e539"] ;
19 -> 20 ;
21 [label=<gini = 0.0<br/>samples = 3<br/>value = [3, 0, 0, 0]<br/>class = A>, fillcolor="#e58139"] ;
19 -> 21 ;
22 [label=<ID &le; 1037.0<br/>gini = 0.597<br/>samples = 92<br/>value = [26.0, 11.0, 4.0, 51.0]<br/>class = D>, fillcolor="#f0b4f5"] ;
18 -> 22 ;
23 [label=<Family_Size &le; 5.5<br/>gini = 0.485<br/>samples = 36<br/>value = [5, 3, 3, 25]<br/>class = D>, fillcolor="#e57fee"] ;
22 -> 23 ;
24 [label=<ID &le; 247.5<br/>gini = 0.446<br/>samples = 33<br/>value = [3, 3, 3, 24]<br/>class = D>, fillcolor="#e374ed"] ;
23 -> 24 ;
25 [label=<Gender &le; 0.5<br/>gini = 0.64<br/>samples = 5<br/>value = [0, 1, 2, 2]<br/>class = C>, fillcolor="#ffffff"] ;
24 -> 25 ;
26 [label=<Age &le; 0.5<br/>gini = 0.444<br/>samples = 3<br/>value = [0, 1, 0, 2]<br/>class = D>, fillcolor="#eb9cf2"] ;
25 -> 26 ;
27 [label=<gini = 0.0<br/>samples = 1<br/>value = [0, 1, 0, 0]<br/>class = B>, fillcolor="#47e539"] ;
26 -> 27 ;
28 [label=<gini = 0.0<br/>samples = 2<br/>value = [0, 0, 0, 2]<br/>class = D>, fillcolor="#d739e5"] ;
26 -> 28 ;
29 [label=<gini = 0.0<br/>samples = 2<br/>value = [0, 0, 2, 0]<br/>class = C>, fillcolor="#399de5"] ;
25 -> 29 ;
30 [label=<Work_Experience &le; 12.0<br/>gini = 0.365<br/>samples = 28<br/>value = [3, 2, 1, 22]<br/>class = D>, fillcolor="#e169eb"] ;
24 -> 30 ;
31 [label=<ID &le; 642.5<br/>gini = 0.331<br/>samples = 26<br/>value = [3, 1, 1, 21]<br/>class = D>, fillcolor="#e064eb"] ;
30 -> 31 ;
32 [label=<ID &le; 632.5<br/>gini = 0.444<br/>samples = 18<br/>value = [3, 1, 1, 13]<br/>class = D>, fillcolor="#e47bee"] ;
31 -> 32 ;
33 [label=<Family_Size &le; 2.5<br/>gini = 0.394<br/>samples = 17<br/>value = [2, 1, 1, 13]<br/>class = D>, fillcolor="#e26eec"] ;
32 -> 33 ;
34 [label=<Age &le; 0.5<br/>gini = 0.5<br/>samples = 4<br/>value = [2, 0, 0, 2]<br/>class = A>, fillcolor="#ffffff"] ;
33 -> 34 ;
35 [label=<gini = 0.0<br/>samples = 1<br/>value = [1, 0, 0, 0]<br/>class = A>, fillcolor="#e58139"] ;
34 -> 35 ;
36 [label=<ID &le; 535.0<br/>gini = 0.444<br/>samples = 3<br/>value = [1, 0, 0, 2]<br/>class = D>, fillcolor="#eb9cf2"] ;
34 -> 36 ;
37 [label=<gini = 0.0<br/>samples = 1<br/>value = [0, 0, 0, 1]<br/>class = D>, fillcolor="#d739e5"] ;
36 -> 37 ;
38 [label=<ID &le; 591.0<br/>gini = 0.5<br/>samples = 2<br/>value = [1, 0, 0, 1]<br/>class = A>, fillcolor="#ffffff"] ;
36 -> 38 ;
39 [label=<gini = 0.0<br/>samples = 1<br/>value = [1, 0, 0, 0]<br/>class = A>, fillcolor="#e58139"] ;
38 -> 39 ;
40 [label=<gini = 0.0<br/>samples = 1<br/>value = [0, 0, 0, 1]<br/>class = D>, fillcolor="#d739e5"] ;
38 -> 40 ;
41 [label=<ID &le; 480.5<br/>gini = 0.272<br/>samples = 13<br/>value = [0, 1, 1, 11]<br/>class = D>, fillcolor="#de5ae9"] ;
33 -> 41 ;
42 [label=<gini = 0.0<br/>samples = 7<br/>value = [0, 0, 0, 7]<br/>class = D>, fillcolor="#d739e5"] ;
41 -> 42 ;
43 [label=<ID &le; 494.5<br/>gini = 0.5<br/>samples = 6<br/>value = [0, 1, 1, 4]<br/>class = D>, fillcolor="#e788ef"] ;
41 -> 43 ;
44 [label=<gini = 0.0<br/>samples = 1<br/>value = [0, 1, 0, 0]<br/>class = B>, fillcolor="#47e539"] ;
43 -> 44 ;
45 [label=<Var_1 &le; 4.0<br/>gini = 0.32<br/>samples = 5<br/>value = [0, 0, 1, 4]<br/>class = D>, fillcolor="#e16aec"] ;
43 -> 45 ;
46 [label=<gini = 0.0<br/>samples = 3<br/>value = [0, 0, 0, 3]<br/>class = D>, fillcolor="#d739e5"] ;
45 -> 46 ;
47 [label=<ID &le; 582.0<br/>gini = 0.5<br/>samples = 2<br/>value = [0, 0, 1, 1]<br/>class = C>, fillcolor="#ffffff"] ;
45 -> 47 ;
48 [label=<gini = 0.0<br/>samples = 1<br/>value = [0, 0, 1, 0]<br/>class = C>, fillcolor="#399de5"] ;
47 -> 48 ;
49 [label=<gini = 0.0<br/>samples = 1<br/>value = [0, 0, 0, 1]<br/>class = D>, fillcolor="#d739e5"] ;
47 -> 49 ;
50 [label=<gini = 0.0<br/>samples = 1<br/>value = [1, 0, 0, 0]<br/>class = A>, fillcolor="#e58139"] ;
32 -> 50 ;
51 [label=<gini = 0.0<br/>samples = 8<br/>value = [0, 0, 0, 8]<br/>class = D>, fillcolor="#d739e5"] ;
31 -> 51 ;
52 [label=<Family_Size &le; 3.5<br/>gini = 0.5<br/>samples = 2<br/>value = [0, 1, 0, 1]<br/>class = B>, fillcolor="#ffffff"] ;
30 -> 52 ;
53 [label=<gini = 0.0<br/>samples = 1<br/>value = [0, 0, 0, 1]<br/>class = D>, fillcolor="#d739e5"] ;
52 -> 53 ;
54 [label=<gini = 0.0<br/>samples = 1<br/>value = [0, 1, 0, 0]<br/>class = B>, fillcolor="#47e539"] ;
52 -> 54 ;
55 [label=<Gender &le; 0.5<br/>gini = 0.444<br/>samples = 3<br/>value = [2, 0, 0, 1]<br/>class = A>, fillcolor="#f2c09c"] ;
23 -> 55 ;
56 [label=<gini = 0.0<br/>samples = 2<br/>value = [2, 0, 0, 0]<br/>class = A>, fillcolor="#e58139"] ;
55 -> 56 ;
57 [label=<gini = 0.0<br/>samples = 1<br/>value = [0, 0, 0, 1]<br/>class = D>, fillcolor="#d739e5"] ;
55 -> 57 ;
58 [label=<Work_Experience &le; 14.5<br/>gini = 0.623<br/>samples = 56<br/>value = [21, 8, 1, 26]<br/>class = D>, fillcolor="#f9e3fb"] ;
22 -> 58 ;
59 [label=<Work_Experience &le; 5.5<br/>gini = 0.632<br/>samples = 53<br/>value = [21, 8, 1, 23]<br/>class = D>, fillcolor="#fcf3fd"] ;
58 -> 59 ;
60 [label=<ID &le; 1149.5<br/>gini = 0.622<br/>samples = 47<br/>value = [16, 7, 1, 23]<br/>class = D>, fillcolor="#f6d2f9"] ;
59 -> 60 ;
61 [label=<Var_1 &le; 1.5<br/>gini = 0.611<br/>samples = 6<br/>value = [3, 2, 0, 1]<br/>class = A>, fillcolor="#f8e0ce"] ;
60 -> 61 ;
62 [label=<gini = 0.0<br/>samples = 1<br/>value = [0, 0, 0, 1]<br/>class = D>, fillcolor="#d739e5"] ;
61 -> 62 ;
63 [label=<ID &le; 1109.0<br/>gini = 0.48<br/>samples = 5<br/>value = [3, 2, 0, 0]<br/>class = A>, fillcolor="#f6d5bd"] ;
61 -> 63 ;
64 [label=<gini = 0.0<br/>samples = 2<br/>value = [2, 0, 0, 0]<br/>class = A>, fillcolor="#e58139"] ;
63 -> 64 ;
65 [label=<Work_Experience &le; 3.0<br/>gini = 0.444<br/>samples = 3<br/>value = [1, 2, 0, 0]<br/>class = B>, fillcolor="#a3f29c"] ;
63 -> 65 ;
66 [label=<gini = 0.0<br/>samples = 2<br/>value = [0, 2, 0, 0]<br/>class = B>, fillcolor="#47e539"] ;
65 -> 66 ;
67 [label=<gini = 0.0<br/>samples = 1<br/>value = [1, 0, 0, 0]<br/>class = A>, fillcolor="#e58139"] ;
65 -> 67 ;
68 [label=<Family_Size &le; 4.5<br/>gini = 0.596<br/>samples = 41<br/>value = [13, 5, 1, 22]<br/>class = D>, fillcolor="#f2bff7"] ;
60 -> 68 ;
69 [label=<ID &le; 2136.5<br/>gini = 0.621<br/>samples = 37<br/>value = [13, 5, 1, 18]<br/>class = D>, fillcolor="#f7d6fa"] ;
68 -> 69 ;
70 [label=<Var_1 &le; 4.5<br/>gini = 0.503<br/>samples = 21<br/>value = [7, 1, 0, 13]<br/>class = D>, fillcolor="#eeaaf4"] ;
69 -> 70 ;
71 [label=<ID &le; 1745.0<br/>gini = 0.32<br/>samples = 10<br/>value = [2, 0, 0, 8]<br/>class = D>, fillcolor="#e16aec"] ;
70 -> 71 ;
72 [label=<gini = 0.0<br/>samples = 5<br/>value = [0, 0, 0, 5]<br/>class = D>, fillcolor="#d739e5"] ;
71 -> 72 ;
73 [label=<ID &le; 2123.5<br/>gini = 0.48<br/>samples = 5<br/>value = [2, 0, 0, 3]<br/>class = D>, fillcolor="#f2bdf6"] ;
71 -> 73 ;
74 [label=<gini = 0.0<br/>samples = 2<br/>value = [2, 0, 0, 0]<br/>class = A>, fillcolor="#e58139"] ;
73 -> 74 ;
75 [label=<gini = 0.0<br/>samples = 3<br/>value = [0, 0, 0, 3]<br/>class = D>, fillcolor="#d739e5"] ;
73 -> 75 ;
76 [label=<ID &le; 1453.5<br/>gini = 0.579<br/>samples = 11<br/>value = [5, 1, 0, 5]<br/>class = A>, fillcolor="#ffffff"] ;
70 -> 76 ;
77 [label=<ID &le; 1215.0<br/>gini = 0.408<br/>samples = 7<br/>value = [5, 0, 0, 2]<br/>class = A>, fillcolor="#efb388"] ;
76 -> 77 ;
78 [label=<gini = 0.0<br/>samples = 1<br/>value = [0, 0, 0, 1]<br/>class = D>, fillcolor="#d739e5"] ;
77 -> 78 ;
79 [label=<ID &le; 1390.0<br/>gini = 0.278<br/>samples = 6<br/>value = [5, 0, 0, 1]<br/>class = A>, fillcolor="#ea9a61"] ;
77 -> 79 ;
80 [label=<gini = 0.0<br/>samples = 4<br/>value = [4, 0, 0, 0]<br/>class = A>, fillcolor="#e58139"] ;
79 -> 80 ;
81 [label=<ID &le; 1412.5<br/>gini = 0.5<br/>samples = 2<br/>value = [1, 0, 0, 1]<br/>class = A>, fillcolor="#ffffff"] ;
79 -> 81 ;
82 [label=<gini = 0.0<br/>samples = 1<br/>value = [0, 0, 0, 1]<br/>class = D>, fillcolor="#d739e5"] ;
81 -> 82 ;
83 [label=<gini = 0.0<br/>samples = 1<br/>value = [1, 0, 0, 0]<br/>class = A>, fillcolor="#e58139"] ;
81 -> 83 ;
84 [label=<Age &le; 1.5<br/>gini = 0.375<br/>samples = 4<br/>value = [0, 1, 0, 3]<br/>class = D>, fillcolor="#e47bee"] ;
76 -> 84 ;
85 [label=<gini = 0.0<br/>samples = 1<br/>value = [0, 1, 0, 0]<br/>class = B>, fillcolor="#47e539"] ;
84 -> 85 ;
86 [label=<gini = 0.0<br/>samples = 3<br/>value = [0, 0, 0, 3]<br/>class = D>, fillcolor="#d739e5"] ;
84 -> 86 ;
87 [label=<Age &le; 0.5<br/>gini = 0.695<br/>samples = 16<br/>value = [6, 4, 1, 5]<br/>class = A>, fillcolor="#fdf4ed"] ;
69 -> 87 ;
88 [label=<Family_Size &le; 1.5<br/>gini = 0.571<br/>samples = 7<br/>value = [0, 2, 1, 4]<br/>class = D>, fillcolor="#efb0f5"] ;
87 -> 88 ;
89 [label=<gini = 0.0<br/>samples = 1<br/>value = [0, 0, 1, 0]<br/>class = C>, fillcolor="#399de5"] ;
88 -> 89 ;
90 [label=<ID &le; 2185.5<br/>gini = 0.444<br/>samples = 6<br/>value = [0, 2, 0, 4]<br/>class = D>, fillcolor="#eb9cf2"] ;
88 -> 90 ;
91 [label=<gini = 0.0<br/>samples = 1<br/>value = [0, 1, 0, 0]<br/>class = B>, fillcolor="#47e539"] ;
90 -> 91 ;
92 [label=<Work_Experience &le; 3.5<br/>gini = 0.32<br/>samples = 5<br/>value = [0, 1, 0, 4]<br/>class = D>, fillcolor="#e16aec"] ;
90 -> 92 ;
93 [label=<gini = 0.0<br/>samples = 3<br/>value = [0, 0, 0, 3]<br/>class = D>, fillcolor="#d739e5"] ;
92 -> 93 ;
94 [label=<Family_Size &le; 3.5<br/>gini = 0.5<br/>samples = 2<br/>value = [0, 1, 0, 1]<br/>class = B>, fillcolor="#ffffff"] ;
92 -> 94 ;
95 [label=<gini = 0.0<br/>samples = 1<br/>value = [0, 1, 0, 0]<br/>class = B>, fillcolor="#47e539"] ;
94 -> 95 ;
96 [label=<gini = 0.0<br/>samples = 1<br/>value = [0, 0, 0, 1]<br/>class = D>, fillcolor="#d739e5"] ;
94 -> 96 ;
97 [label=<Var_1 &le; 4.0<br/>gini = 0.494<br/>samples = 9<br/>value = [6, 2, 0, 1]<br/>class = A>, fillcolor="#f0b78e"] ;
87 -> 97 ;
98 [label=<gini = 0.0<br/>samples = 4<br/>value = [4, 0, 0, 0]<br/>class = A>, fillcolor="#e58139"] ;
97 -> 98 ;
99 [label=<Work_Experience &le; 0.5<br/>gini = 0.64<br/>samples = 5<br/>value = [2, 2, 0, 1]<br/>class = A>, fillcolor="#ffffff"] ;
97 -> 99 ;
100 [label=<ID &le; 2590.5<br/>gini = 0.5<br/>samples = 2<br/>value = [1, 0, 0, 1]<br/>class = A>, fillcolor="#ffffff"] ;
99 -> 100 ;
101 [label=<gini = 0.0<br/>samples = 1<br/>value = [0, 0, 0, 1]<br/>class = D>, fillcolor="#d739e5"] ;
100 -> 101 ;
102 [label=<gini = 0.0<br/>samples = 1<br/>value = [1, 0, 0, 0]<br/>class = A>, fillcolor="#e58139"] ;
100 -> 102 ;
103 [label=<Var_1 &le; 6.0<br/>gini = 0.444<br/>samples = 3<br/>value = [1, 2, 0, 0]<br/>class = B>, fillcolor="#a3f29c"] ;
99 -> 103 ;
104 [label=<ID &le; 2404.5<br/>gini = 0.5<br/>samples = 2<br/>value = [1, 1, 0, 0]<br/>class = A>, fillcolor="#ffffff"] ;
103 -> 104 ;
105 [label=<gini = 0.0<br/>samples = 1<br/>value = [1, 0, 0, 0]<br/>class = A>, fillcolor="#e58139"] ;
104 -> 105 ;
106 [label=<gini = 0.0<br/>samples = 1<br/>value = [0, 1, 0, 0]<br/>class = B>, fillcolor="#47e539"] ;
104 -> 106 ;
107 [label=<gini = 0.0<br/>samples = 1<br/>value = [0, 1, 0, 0]<br/>class = B>, fillcolor="#47e539"] ;
103 -> 107 ;
108 [label=<gini = 0.0<br/>samples = 4<br/>value = [0, 0, 0, 4]<br/>class = D>, fillcolor="#d739e5"] ;
68 -> 108 ;
109 [label=<ID &le; 1845.5<br/>gini = 0.278<br/>samples = 6<br/>value = [5, 1, 0, 0]<br/>class = A>, fillcolor="#ea9a61"] ;
59 -> 109 ;
110 [label=<gini = 0.0<br/>samples = 1<br/>value = [0, 1, 0, 0]<br/>class = B>, fillcolor="#47e539"] ;
109 -> 110 ;
111 [label=<gini = 0.0<br/>samples = 5<br/>value = [5, 0, 0, 0]<br/>class = A>, fillcolor="#e58139"] ;
109 -> 111 ;
112 [label=<gini = 0.0<br/>samples = 3<br/>value = [0, 0, 0, 3]<br/>class = D>, fillcolor="#d739e5"] ;
58 -> 112 ;
113 [label=<gini = 0.0<br/>samples = 4<br/>value = [0, 0, 0, 4]<br/>class = D>, fillcolor="#d739e5"] ;
3 -> 113 ;
114 [label=<Age &le; 4.5<br/>gini = 0.522<br/>samples = 94<br/>value = [15.0, 11.0, 6.0, 62.0]<br/>class = D>, fillcolor="#e789f0"] ;
2 -> 114 ;
115 [label=<Var_1 &le; 0.5<br/>gini = 0.453<br/>samples = 67<br/>value = [11, 4, 4, 48]<br/>class = D>, fillcolor="#e57cee"] ;
114 -> 115 ;
116 [label=<gini = 0.0<br/>samples = 1<br/>value = [0, 0, 1, 0]<br/>class = C>, fillcolor="#399de5"] ;
115 -> 116 ;
117 [label=<Ever_Married &le; 0.5<br/>gini = 0.438<br/>samples = 66<br/>value = [11, 4, 3, 48]<br/>class = D>, fillcolor="#e47aee"] ;
115 -> 117 ;
118 [label=<Profession &le; 0.5<br/>gini = 0.417<br/>samples = 63<br/>value = [9, 4, 3, 47]<br/>class = D>, fillcolor="#e374ed"] ;
117 -> 118 ;
119 [label=<gini = 0.0<br/>samples = 1<br/>value = [1, 0, 0, 0]<br/>class = A>, fillcolor="#e58139"] ;
118 -> 119 ;
120 [label=<ID &le; 1434.5<br/>gini = 0.402<br/>samples = 62<br/>value = [8, 4, 3, 47]<br/>class = D>, fillcolor="#e270ec"] ;
118 -> 120 ;
121 [label=<Graduated &le; 1.0<br/>gini = 0.512<br/>samples = 36<br/>value = [6, 4, 2, 24]<br/>class = D>, fillcolor="#e788ef"] ;
120 -> 121 ;
122 [label=<Family_Size &le; 3.5<br/>gini = 0.487<br/>samples = 35<br/>value = [6, 4, 1, 24]<br/>class = D>, fillcolor="#e684ef"] ;
121 -> 122 ;
123 [label=<Var_1 &le; 5.5<br/>gini = 0.434<br/>samples = 22<br/>value = [1, 4, 1, 16]<br/>class = D>, fillcolor="#e47bee"] ;
122 -> 123 ;
124 [label=<ID &le; 1375.5<br/>gini = 0.381<br/>samples = 21<br/>value = [0, 4, 1, 16]<br/>class = D>, fillcolor="#e373ed"] ;
123 -> 124 ;
125 [label=<Var_1 &le; 4.0<br/>gini = 0.335<br/>samples = 20<br/>value = [0, 3, 1, 16]<br/>class = D>, fillcolor="#e068eb"] ;
124 -> 125 ;
126 [label=<Work_Experience &le; 0.5<br/>gini = 0.56<br/>samples = 5<br/>value = [0, 1, 1, 3]<br/>class = D>, fillcolor="#eb9cf2"] ;
125 -> 126 ;
127 [label=<gini = 0.0<br/>samples = 3<br/>value = [0, 0, 0, 3]<br/>class = D>, fillcolor="#d739e5"] ;
126 -> 127 ;
128 [label=<ID &le; 782.0<br/>gini = 0.5<br/>samples = 2<br/>value = [0, 1, 1, 0]<br/>class = B>, fillcolor="#ffffff"] ;
126 -> 128 ;
129 [label=<gini = 0.0<br/>samples = 1<br/>value = [0, 0, 1, 0]<br/>class = C>, fillcolor="#399de5"] ;
128 -> 129 ;
130 [label=<gini = 0.0<br/>samples = 1<br/>value = [0, 1, 0, 0]<br/>class = B>, fillcolor="#47e539"] ;
128 -> 130 ;
131 [label=<ID &le; 1141.0<br/>gini = 0.231<br/>samples = 15<br/>value = [0, 2, 0, 13]<br/>class = D>, fillcolor="#dd57e9"] ;
125 -> 131 ;
132 [label=<Work_Experience &le; 3.0<br/>gini = 0.153<br/>samples = 12<br/>value = [0, 1, 0, 11]<br/>class = D>, fillcolor="#db4be7"] ;
131 -> 132 ;
133 [label=<gini = 0.0<br/>samples = 8<br/>value = [0, 0, 0, 8]<br/>class = D>, fillcolor="#d739e5"] ;
132 -> 133 ;
134 [label=<Work_Experience &le; 6.5<br/>gini = 0.375<br/>samples = 4<br/>value = [0, 1, 0, 3]<br/>class = D>, fillcolor="#e47bee"] ;
132 -> 134 ;
135 [label=<gini = 0.0<br/>samples = 1<br/>value = [0, 1, 0, 0]<br/>class = B>, fillcolor="#47e539"] ;
134 -> 135 ;
136 [label=<gini = 0.0<br/>samples = 3<br/>value = [0, 0, 0, 3]<br/>class = D>, fillcolor="#d739e5"] ;
134 -> 136 ;
137 [label=<ID &le; 1154.5<br/>gini = 0.444<br/>samples = 3<br/>value = [0, 1, 0, 2]<br/>class = D>, fillcolor="#eb9cf2"] ;
131 -> 137 ;
138 [label=<gini = 0.0<br/>samples = 1<br/>value = [0, 1, 0, 0]<br/>class = B>, fillcolor="#47e539"] ;
137 -> 138 ;
139 [label=<gini = 0.0<br/>samples = 2<br/>value = [0, 0, 0, 2]<br/>class = D>, fillcolor="#d739e5"] ;
137 -> 139 ;
140 [label=<gini = 0.0<br/>samples = 1<br/>value = [0, 1, 0, 0]<br/>class = B>, fillcolor="#47e539"] ;
124 -> 140 ;
141 [label=<gini = 0.0<br/>samples = 1<br/>value = [1, 0, 0, 0]<br/>class = A>, fillcolor="#e58139"] ;
123 -> 141 ;
142 [label=<ID &le; 1004.5<br/>gini = 0.473<br/>samples = 13<br/>value = [5, 0, 0, 8]<br/>class = D>, fillcolor="#f0b5f5"] ;
122 -> 142 ;
143 [label=<Profession &le; 4.5<br/>gini = 0.397<br/>samples = 11<br/>value = [3, 0, 0, 8]<br/>class = D>, fillcolor="#e683ef"] ;
142 -> 143 ;
144 [label=<gini = 0.0<br/>samples = 1<br/>value = [1, 0, 0, 0]<br/>class = A>, fillcolor="#e58139"] ;
143 -> 144 ;
145 [label=<Family_Size &le; 4.5<br/>gini = 0.32<br/>samples = 10<br/>value = [2, 0, 0, 8]<br/>class = D>, fillcolor="#e16aec"] ;
143 -> 145 ;
146 [label=<ID &le; 165.0<br/>gini = 0.48<br/>samples = 5<br/>value = [2, 0, 0, 3]<br/>class = D>, fillcolor="#f2bdf6"] ;
145 -> 146 ;
147 [label=<gini = 0.0<br/>samples = 1<br/>value = [1, 0, 0, 0]<br/>class = A>, fillcolor="#e58139"] ;
146 -> 147 ;
148 [label=<ID &le; 873.5<br/>gini = 0.375<br/>samples = 4<br/>value = [1, 0, 0, 3]<br/>class = D>, fillcolor="#e47bee"] ;
146 -> 148 ;
149 [label=<gini = 0.0<br/>samples = 3<br/>value = [0, 0, 0, 3]<br/>class = D>, fillcolor="#d739e5"] ;
148 -> 149 ;
150 [label=<gini = 0.0<br/>samples = 1<br/>value = [1, 0, 0, 0]<br/>class = A>, fillcolor="#e58139"] ;
148 -> 150 ;
151 [label=<gini = 0.0<br/>samples = 5<br/>value = [0, 0, 0, 5]<br/>class = D>, fillcolor="#d739e5"] ;
145 -> 151 ;
152 [label=<gini = 0.0<br/>samples = 2<br/>value = [2, 0, 0, 0]<br/>class = A>, fillcolor="#e58139"] ;
142 -> 152 ;
153 [label=<gini = 0.0<br/>samples = 1<br/>value = [0, 0, 1, 0]<br/>class = C>, fillcolor="#399de5"] ;
121 -> 153 ;
154 [label=<Profession &le; 1.5<br/>gini = 0.21<br/>samples = 26<br/>value = [2, 0, 1, 23]<br/>class = D>, fillcolor="#dc52e8"] ;
120 -> 154 ;
155 [label=<ID &le; 2453.5<br/>gini = 0.5<br/>samples = 2<br/>value = [1, 0, 0, 1]<br/>class = A>, fillcolor="#ffffff"] ;
154 -> 155 ;
156 [label=<gini = 0.0<br/>samples = 1<br/>value = [1, 0, 0, 0]<br/>class = A>, fillcolor="#e58139"] ;
155 -> 156 ;
157 [label=<gini = 0.0<br/>samples = 1<br/>value = [0, 0, 0, 1]<br/>class = D>, fillcolor="#d739e5"] ;
155 -> 157 ;
158 [label=<ID &le; 1995.5<br/>gini = 0.156<br/>samples = 24<br/>value = [1, 0, 1, 22]<br/>class = D>, fillcolor="#da4ae7"] ;
154 -> 158 ;
159 [label=<ID &le; 1978.0<br/>gini = 0.314<br/>samples = 11<br/>value = [1, 0, 1, 9]<br/>class = D>, fillcolor="#df61ea"] ;
158 -> 159 ;
160 [label=<ID &le; 1871.5<br/>gini = 0.18<br/>samples = 10<br/>value = [1, 0, 0, 9]<br/>class = D>, fillcolor="#db4fe8"] ;
159 -> 160 ;
161 [label=<gini = 0.0<br/>samples = 7<br/>value = [0, 0, 0, 7]<br/>class = D>, fillcolor="#d739e5"] ;
160 -> 161 ;
162 [label=<Age &le; 3.5<br/>gini = 0.444<br/>samples = 3<br/>value = [1, 0, 0, 2]<br/>class = D>, fillcolor="#eb9cf2"] ;
160 -> 162 ;
163 [label=<gini = 0.0<br/>samples = 2<br/>value = [0, 0, 0, 2]<br/>class = D>, fillcolor="#d739e5"] ;
162 -> 163 ;
164 [label=<gini = 0.0<br/>samples = 1<br/>value = [1, 0, 0, 0]<br/>class = A>, fillcolor="#e58139"] ;
162 -> 164 ;
165 [label=<gini = 0.0<br/>samples = 1<br/>value = [0, 0, 1, 0]<br/>class = C>, fillcolor="#399de5"] ;
159 -> 165 ;
166 [label=<gini = 0.0<br/>samples = 13<br/>value = [0, 0, 0, 13]<br/>class = D>, fillcolor="#d739e5"] ;
158 -> 166 ;
167 [label=<Gender &le; 0.5<br/>gini = 0.444<br/>samples = 3<br/>value = [2, 0, 0, 1]<br/>class = A>, fillcolor="#f2c09c"] ;
117 -> 167 ;
168 [label=<gini = 0.0<br/>samples = 1<br/>value = [0, 0, 0, 1]<br/>class = D>, fillcolor="#d739e5"] ;
167 -> 168 ;
169 [label=<gini = 0.0<br/>samples = 2<br/>value = [2, 0, 0, 0]<br/>class = A>, fillcolor="#e58139"] ;
167 -> 169 ;
170 [label=<Family_Size &le; 4.5<br/>gini = 0.636<br/>samples = 27<br/>value = [4, 7, 2, 14]<br/>class = D>, fillcolor="#f1baf6"] ;
114 -> 170 ;
171 [label=<Var_1 &le; 5.5<br/>gini = 0.587<br/>samples = 24<br/>value = [4, 5, 1, 14]<br/>class = D>, fillcolor="#eca1f3"] ;
170 -> 171 ;
172 [label=<Var_1 &le; 2.5<br/>gini = 0.563<br/>samples = 23<br/>value = [3, 5, 1, 14]<br/>class = D>, fillcolor="#eb9cf2"] ;
171 -> 172 ;
173 [label=<ID &le; 1996.5<br/>gini = 0.49<br/>samples = 7<br/>value = [3, 0, 0, 4]<br/>class = D>, fillcolor="#f5cef8"] ;
172 -> 173 ;
174 [label=<Work_Experience &le; 8.0<br/>gini = 0.32<br/>samples = 5<br/>value = [1, 0, 0, 4]<br/>class = D>, fillcolor="#e16aec"] ;
173 -> 174 ;
175 [label=<gini = 0.0<br/>samples = 4<br/>value = [0, 0, 0, 4]<br/>class = D>, fillcolor="#d739e5"] ;
174 -> 175 ;
176 [label=<gini = 0.0<br/>samples = 1<br/>value = [1, 0, 0, 0]<br/>class = A>, fillcolor="#e58139"] ;
174 -> 176 ;
177 [label=<gini = 0.0<br/>samples = 2<br/>value = [2, 0, 0, 0]<br/>class = A>, fillcolor="#e58139"] ;
173 -> 177 ;
178 [label=<Var_1 &le; 4.0<br/>gini = 0.508<br/>samples = 16<br/>value = [0, 5, 1, 10]<br/>class = D>, fillcolor="#eda5f3"] ;
172 -> 178 ;
179 [label=<ID &le; 1312.0<br/>gini = 0.611<br/>samples = 6<br/>value = [0, 3, 1, 2]<br/>class = B>, fillcolor="#d1f8ce"] ;
178 -> 179 ;
180 [label=<Family_Size &le; 3.5<br/>gini = 0.444<br/>samples = 3<br/>value = [0, 0, 1, 2]<br/>class = D>, fillcolor="#eb9cf2"] ;
179 -> 180 ;
181 [label=<gini = 0.0<br/>samples = 1<br/>value = [0, 0, 1, 0]<br/>class = C>, fillcolor="#399de5"] ;
180 -> 181 ;
182 [label=<gini = 0.0<br/>samples = 2<br/>value = [0, 0, 0, 2]<br/>class = D>, fillcolor="#d739e5"] ;
180 -> 182 ;
183 [label=<gini = 0.0<br/>samples = 3<br/>value = [0, 3, 0, 0]<br/>class = B>, fillcolor="#47e539"] ;
179 -> 183 ;
184 [label=<ID &le; 477.0<br/>gini = 0.32<br/>samples = 10<br/>value = [0, 2, 0, 8]<br/>class = D>, fillcolor="#e16aec"] ;
178 -> 184 ;
185 [label=<gini = 0.0<br/>samples = 1<br/>value = [0, 1, 0, 0]<br/>class = B>, fillcolor="#47e539"] ;
184 -> 185 ;
186 [label=<ID &le; 1944.5<br/>gini = 0.198<br/>samples = 9<br/>value = [0, 1, 0, 8]<br/>class = D>, fillcolor="#dc52e8"] ;
184 -> 186 ;
187 [label=<ID &le; 1664.0<br/>gini = 0.444<br/>samples = 3<br/>value = [0, 1, 0, 2]<br/>class = D>, fillcolor="#eb9cf2"] ;
186 -> 187 ;
188 [label=<gini = 0.0<br/>samples = 2<br/>value = [0, 0, 0, 2]<br/>class = D>, fillcolor="#d739e5"] ;
187 -> 188 ;
189 [label=<gini = 0.0<br/>samples = 1<br/>value = [0, 1, 0, 0]<br/>class = B>, fillcolor="#47e539"] ;
187 -> 189 ;
190 [label=<gini = 0.0<br/>samples = 6<br/>value = [0, 0, 0, 6]<br/>class = D>, fillcolor="#d739e5"] ;
186 -> 190 ;
191 [label=<gini = 0.0<br/>samples = 1<br/>value = [1, 0, 0, 0]<br/>class = A>, fillcolor="#e58139"] ;
171 -> 191 ;
192 [label=<ID &le; 2146.5<br/>gini = 0.444<br/>samples = 3<br/>value = [0, 2, 1, 0]<br/>class = B>, fillcolor="#a3f29c"] ;
170 -> 192 ;
193 [label=<gini = 0.0<br/>samples = 2<br/>value = [0, 2, 0, 0]<br/>class = B>, fillcolor="#47e539"] ;
192 -> 193 ;
194 [label=<gini = 0.0<br/>samples = 1<br/>value = [0, 0, 1, 0]<br/>class = C>, fillcolor="#399de5"] ;
192 -> 194 ;
195 [label=<ID &le; 2127.5<br/>gini = 0.675<br/>samples = 499<br/>value = [174, 74, 43, 208]<br/>class = D>, fillcolor="#fbeafc"] ;
1 -> 195 ;
196 [label=<Ever_Married &le; 1.5<br/>gini = 0.683<br/>samples = 412<br/>value = [150.0, 62.0, 39.0, 161.0]<br/>class = D>, fillcolor="#fdf7fe"] ;
195 -> 196 ;
197 [label=<Family_Size &le; 5.5<br/>gini = 0.685<br/>samples = 403<br/>value = [143, 62, 39, 159]<br/>class = D>, fillcolor="#fdf3fd"] ;
196 -> 197 ;
198 [label=<Profession &le; 5.5<br/>gini = 0.676<br/>samples = 366<br/>value = [129, 53, 33, 151]<br/>class = D>, fillcolor="#fbedfd"] ;
197 -> 198 ;
199 [label=<Age &le; 9.5<br/>gini = 0.67<br/>samples = 328<br/>value = [121, 43, 29, 135]<br/>class = D>, fillcolor="#fcf2fd"] ;
198 -> 199 ;
200 [label=<Spending_Score &le; 0.5<br/>gini = 0.693<br/>samples = 162<br/>value = [51, 29, 16, 66]<br/>class = D>, fillcolor="#fae4fb"] ;
199 -> 200 ;
201 [label=<Family_Size &le; 3.0<br/>gini = 0.548<br/>samples = 19<br/>value = [3, 3, 1, 12]<br/>class = D>, fillcolor="#e890f0"] ;
200 -> 201 ;
202 [label=<ID &le; 708.0<br/>gini = 0.464<br/>samples = 17<br/>value = [1, 3, 1, 12]<br/>class = D>, fillcolor="#e580ee"] ;
201 -> 202 ;
203 [label=<Work_Experience &le; 7.5<br/>gini = 0.667<br/>samples = 3<br/>value = [1, 1, 0, 1]<br/>class = A>, fillcolor="#ffffff"] ;
202 -> 203 ;
204 [label=<gini = 0.0<br/>samples = 1<br/>value = [0, 1, 0, 0]<br/>class = B>, fillcolor="#47e539"] ;
203 -> 204 ;
205 [label=<Var_1 &le; 2.5<br/>gini = 0.5<br/>samples = 2<br/>value = [1, 0, 0, 1]<br/>class = A>, fillcolor="#ffffff"] ;
203 -> 205 ;
206 [label=<gini = 0.0<br/>samples = 1<br/>value = [0, 0, 0, 1]<br/>class = D>, fillcolor="#d739e5"] ;
205 -> 206 ;
207 [label=<gini = 0.0<br/>samples = 1<br/>value = [1, 0, 0, 0]<br/>class = A>, fillcolor="#e58139"] ;
205 -> 207 ;
208 [label=<Family_Size &le; 1.5<br/>gini = 0.357<br/>samples = 14<br/>value = [0, 2, 1, 11]<br/>class = D>, fillcolor="#e16bec"] ;
202 -> 208 ;
209 [label=<ID &le; 1528.0<br/>gini = 0.198<br/>samples = 9<br/>value = [0, 0, 1, 8]<br/>class = D>, fillcolor="#dc52e8"] ;
208 -> 209 ;
210 [label=<gini = 0.0<br/>samples = 7<br/>value = [0, 0, 0, 7]<br/>class = D>, fillcolor="#d739e5"] ;
209 -> 210 ;
211 [label=<Profession &le; 3.0<br/>gini = 0.5<br/>samples = 2<br/>value = [0, 0, 1, 1]<br/>class = C>, fillcolor="#ffffff"] ;
209 -> 211 ;
212 [label=<gini = 0.0<br/>samples = 1<br/>value = [0, 0, 1, 0]<br/>class = C>, fillcolor="#399de5"] ;
211 -> 212 ;
213 [label=<gini = 0.0<br/>samples = 1<br/>value = [0, 0, 0, 1]<br/>class = D>, fillcolor="#d739e5"] ;
211 -> 213 ;
214 [label=<ID &le; 1380.0<br/>gini = 0.48<br/>samples = 5<br/>value = [0, 2, 0, 3]<br/>class = D>, fillcolor="#f2bdf6"] ;
208 -> 214 ;
215 [label=<Profession &le; 1.5<br/>gini = 0.444<br/>samples = 3<br/>value = [0, 2, 0, 1]<br/>class = B>, fillcolor="#a3f29c"] ;
214 -> 215 ;
216 [label=<gini = 0.0<br/>samples = 2<br/>value = [0, 2, 0, 0]<br/>class = B>, fillcolor="#47e539"] ;
215 -> 216 ;
217 [label=<gini = 0.0<br/>samples = 1<br/>value = [0, 0, 0, 1]<br/>class = D>, fillcolor="#d739e5"] ;
215 -> 217 ;
218 [label=<gini = 0.0<br/>samples = 2<br/>value = [0, 0, 0, 2]<br/>class = D>, fillcolor="#d739e5"] ;
214 -> 218 ;
219 [label=<gini = 0.0<br/>samples = 2<br/>value = [2, 0, 0, 0]<br/>class = A>, fillcolor="#e58139"] ;
201 -> 219 ;
220 [label=<Gender &le; 0.5<br/>gini = 0.701<br/>samples = 143<br/>value = [48, 26, 15, 54]<br/>class = D>, fillcolor="#fcf2fd"] ;
200 -> 220 ;
221 [label=<Graduated &le; 0.5<br/>gini = 0.68<br/>samples = 63<br/>value = [20, 17, 2, 24]<br/>class = D>, fillcolor="#fbedfd"] ;
220 -> 221 ;
222 [label=<Ever_Married &le; 0.5<br/>gini = 0.678<br/>samples = 29<br/>value = [13, 7, 2, 7]<br/>class = A>, fillcolor="#f8ddc9"] ;
221 -> 222 ;
223 [label=<Family_Size &le; 0.5<br/>gini = 0.635<br/>samples = 24<br/>value = [12, 7, 1, 4]<br/>class = A>, fillcolor="#f7dac5"] ;
222 -> 223 ;
224 [label=<Work_Experience &le; 14.5<br/>gini = 0.56<br/>samples = 5<br/>value = [1, 1, 0, 3]<br/>class = D>, fillcolor="#eb9cf2"] ;
223 -> 224 ;
225 [label=<Profession &le; 1.0<br/>gini = 0.375<br/>samples = 4<br/>value = [0, 1, 0, 3]<br/>class = D>, fillcolor="#e47bee"] ;
224 -> 225 ;
226 [label=<gini = 0.0<br/>samples = 1<br/>value = [0, 1, 0, 0]<br/>class = B>, fillcolor="#47e539"] ;
225 -> 226 ;
227 [label=<gini = 0.0<br/>samples = 3<br/>value = [0, 0, 0, 3]<br/>class = D>, fillcolor="#d739e5"] ;
225 -> 227 ;
228 [label=<gini = 0.0<br/>samples = 1<br/>value = [1, 0, 0, 0]<br/>class = A>, fillcolor="#e58139"] ;
224 -> 228 ;
229 [label=<Work_Experience &le; 11.0<br/>gini = 0.56<br/>samples = 19<br/>value = [11, 6, 1, 1]<br/>class = A>, fillcolor="#f5cfb3"] ;
223 -> 229 ;
230 [label=<ID &le; 1468.5<br/>gini = 0.484<br/>samples = 16<br/>value = [11, 3, 1, 1]<br/>class = A>, fillcolor="#efb185"] ;
229 -> 230 ;
231 [label=<Work_Experience &le; 0.5<br/>gini = 0.219<br/>samples = 8<br/>value = [7, 0, 1, 0]<br/>class = A>, fillcolor="#e99355"] ;
230 -> 231 ;
232 [label=<Age &le; 7.5<br/>gini = 0.444<br/>samples = 3<br/>value = [2, 0, 1, 0]<br/>class = A>, fillcolor="#f2c09c"] ;
231 -> 232 ;
233 [label=<gini = 0.0<br/>samples = 1<br/>value = [0, 0, 1, 0]<br/>class = C>, fillcolor="#399de5"] ;
232 -> 233 ;
234 [label=<gini = 0.0<br/>samples = 2<br/>value = [2, 0, 0, 0]<br/>class = A>, fillcolor="#e58139"] ;
232 -> 234 ;
235 [label=<gini = 0.0<br/>samples = 5<br/>value = [5, 0, 0, 0]<br/>class = A>, fillcolor="#e58139"] ;
231 -> 235 ;
236 [label=<ID &le; 1499.0<br/>gini = 0.594<br/>samples = 8<br/>value = [4, 3, 0, 1]<br/>class = A>, fillcolor="#fae6d7"] ;
230 -> 236 ;
237 [label=<gini = 0.0<br/>samples = 2<br/>value = [0, 2, 0, 0]<br/>class = B>, fillcolor="#47e539"] ;
236 -> 237 ;
238 [label=<Family_Size &le; 1.5<br/>gini = 0.5<br/>samples = 6<br/>value = [4, 1, 0, 1]<br/>class = A>, fillcolor="#efb388"] ;
236 -> 238 ;
239 [label=<gini = 0.0<br/>samples = 1<br/>value = [0, 1, 0, 0]<br/>class = B>, fillcolor="#47e539"] ;
238 -> 239 ;
240 [label=<Family_Size &le; 4.5<br/>gini = 0.32<br/>samples = 5<br/>value = [4, 0, 0, 1]<br/>class = A>, fillcolor="#eca06a"] ;
238 -> 240 ;
241 [label=<gini = 0.0<br/>samples = 4<br/>value = [4, 0, 0, 0]<br/>class = A>, fillcolor="#e58139"] ;
240 -> 241 ;
242 [label=<gini = 0.0<br/>samples = 1<br/>value = [0, 0, 0, 1]<br/>class = D>, fillcolor="#d739e5"] ;
240 -> 242 ;
243 [label=<gini = 0.0<br/>samples = 3<br/>value = [0, 3, 0, 0]<br/>class = B>, fillcolor="#47e539"] ;
229 -> 243 ;
244 [label=<Family_Size &le; 1.5<br/>gini = 0.56<br/>samples = 5<br/>value = [1, 0, 1, 3]<br/>class = D>, fillcolor="#eb9cf2"] ;
222 -> 244 ;
245 [label=<gini = 0.0<br/>samples = 1<br/>value = [1, 0, 0, 0]<br/>class = A>, fillcolor="#e58139"] ;
244 -> 245 ;
246 [label=<Profession &le; 0.5<br/>gini = 0.375<br/>samples = 4<br/>value = [0, 0, 1, 3]<br/>class = D>, fillcolor="#e47bee"] ;
244 -> 246 ;
247 [label=<Family_Size &le; 2.5<br/>gini = 0.5<br/>samples = 2<br/>value = [0, 0, 1, 1]<br/>class = C>, fillcolor="#ffffff"] ;
246 -> 247 ;
248 [label=<gini = 0.0<br/>samples = 1<br/>value = [0, 0, 0, 1]<br/>class = D>, fillcolor="#d739e5"] ;
247 -> 248 ;
249 [label=<gini = 0.0<br/>samples = 1<br/>value = [0, 0, 1, 0]<br/>class = C>, fillcolor="#399de5"] ;
247 -> 249 ;
250 [label=<gini = 0.0<br/>samples = 2<br/>value = [0, 0, 0, 2]<br/>class = D>, fillcolor="#d739e5"] ;
246 -> 250 ;
251 [label=<Var_1 &le; 4.5<br/>gini = 0.621<br/>samples = 34<br/>value = [7, 10, 0, 17]<br/>class = D>, fillcolor="#f3c5f7"] ;
221 -> 251 ;
252 [label=<Family_Size &le; 1.5<br/>gini = 0.219<br/>samples = 8<br/>value = [0, 1, 0, 7]<br/>class = D>, fillcolor="#dd55e9"] ;
251 -> 252 ;
253 [label=<Family_Size &le; 0.5<br/>gini = 0.444<br/>samples = 3<br/>value = [0, 1, 0, 2]<br/>class = D>, fillcolor="#eb9cf2"] ;
252 -> 253 ;
254 [label=<gini = 0.0<br/>samples = 2<br/>value = [0, 0, 0, 2]<br/>class = D>, fillcolor="#d739e5"] ;
253 -> 254 ;
255 [label=<gini = 0.0<br/>samples = 1<br/>value = [0, 1, 0, 0]<br/>class = B>, fillcolor="#47e539"] ;
253 -> 255 ;
256 [label=<gini = 0.0<br/>samples = 5<br/>value = [0, 0, 0, 5]<br/>class = D>, fillcolor="#d739e5"] ;
252 -> 256 ;
257 [label=<Spending_Score &le; 1.5<br/>gini = 0.66<br/>samples = 26<br/>value = [7, 9, 0, 10]<br/>class = D>, fillcolor="#fdf3fd"] ;
251 -> 257 ;
258 [label=<gini = 0.0<br/>samples = 2<br/>value = [0, 2, 0, 0]<br/>class = B>, fillcolor="#47e539"] ;
257 -> 258 ;
259 [label=<ID &le; 1535.0<br/>gini = 0.656<br/>samples = 24<br/>value = [7, 7, 0, 10]<br/>class = D>, fillcolor="#f8dcfa"] ;
257 -> 259 ;
260 [label=<ID &le; 1420.5<br/>gini = 0.667<br/>samples = 21<br/>value = [7, 7, 0, 7]<br/>class = A>, fillcolor="#ffffff"] ;
259 -> 260 ;
261 [label=<Family_Size &le; 1.5<br/>gini = 0.659<br/>samples = 19<br/>value = [7, 5, 0, 7]<br/>class = A>, fillcolor="#ffffff"] ;
260 -> 261 ;
262 [label=<ID &le; 437.0<br/>gini = 0.593<br/>samples = 9<br/>value = [1, 4, 0, 4]<br/>class = B>, fillcolor="#ffffff"] ;
261 -> 262 ;
263 [label=<Work_Experience &le; 11.5<br/>gini = 0.375<br/>samples = 4<br/>value = [0, 3, 0, 1]<br/>class = B>, fillcolor="#84ee7b"] ;
262 -> 263 ;
264 [label=<gini = 0.0<br/>samples = 3<br/>value = [0, 3, 0, 0]<br/>class = B>, fillcolor="#47e539"] ;
263 -> 264 ;
265 [label=<gini = 0.0<br/>samples = 1<br/>value = [0, 0, 0, 1]<br/>class = D>, fillcolor="#d739e5"] ;
263 -> 265 ;
266 [label=<ID &le; 1352.5<br/>gini = 0.56<br/>samples = 5<br/>value = [1, 1, 0, 3]<br/>class = D>, fillcolor="#eb9cf2"] ;
262 -> 266 ;
267 [label=<Work_Experience &le; 8.5<br/>gini = 0.375<br/>samples = 4<br/>value = [1, 0, 0, 3]<br/>class = D>, fillcolor="#e47bee"] ;
266 -> 267 ;
268 [label=<gini = 0.0<br/>samples = 3<br/>value = [0, 0, 0, 3]<br/>class = D>, fillcolor="#d739e5"] ;
267 -> 268 ;
269 [label=<gini = 0.0<br/>samples = 1<br/>value = [1, 0, 0, 0]<br/>class = A>, fillcolor="#e58139"] ;
267 -> 269 ;
270 [label=<gini = 0.0<br/>samples = 1<br/>value = [0, 1, 0, 0]<br/>class = B>, fillcolor="#47e539"] ;
266 -> 270 ;
271 [label=<Age &le; 8.5<br/>gini = 0.54<br/>samples = 10<br/>value = [6, 1, 0, 3]<br/>class = A>, fillcolor="#f4c9aa"] ;
261 -> 271 ;
272 [label=<ID &le; 988.5<br/>gini = 0.278<br/>samples = 6<br/>value = [5, 0, 0, 1]<br/>class = A>, fillcolor="#ea9a61"] ;
271 -> 272 ;
273 [label=<gini = 0.0<br/>samples = 4<br/>value = [4, 0, 0, 0]<br/>class = A>, fillcolor="#e58139"] ;
272 -> 273 ;
274 [label=<Work_Experience &le; 9.5<br/>gini = 0.5<br/>samples = 2<br/>value = [1, 0, 0, 1]<br/>class = A>, fillcolor="#ffffff"] ;
272 -> 274 ;
275 [label=<gini = 0.0<br/>samples = 1<br/>value = [0, 0, 0, 1]<br/>class = D>, fillcolor="#d739e5"] ;
274 -> 275 ;
276 [label=<gini = 0.0<br/>samples = 1<br/>value = [1, 0, 0, 0]<br/>class = A>, fillcolor="#e58139"] ;
274 -> 276 ;
277 [label=<Profession &le; 4.0<br/>gini = 0.625<br/>samples = 4<br/>value = [1, 1, 0, 2]<br/>class = D>, fillcolor="#f2bdf6"] ;
271 -> 277 ;
278 [label=<ID &le; 1044.0<br/>gini = 0.444<br/>samples = 3<br/>value = [1, 0, 0, 2]<br/>class = D>, fillcolor="#eb9cf2"] ;
277 -> 278 ;
279 [label=<gini = 0.0<br/>samples = 2<br/>value = [0, 0, 0, 2]<br/>class = D>, fillcolor="#d739e5"] ;
278 -> 279 ;
280 [label=<gini = 0.0<br/>samples = 1<br/>value = [1, 0, 0, 0]<br/>class = A>, fillcolor="#e58139"] ;
278 -> 280 ;
281 [label=<gini = 0.0<br/>samples = 1<br/>value = [0, 1, 0, 0]<br/>class = B>, fillcolor="#47e539"] ;
277 -> 281 ;
282 [label=<gini = 0.0<br/>samples = 2<br/>value = [0, 2, 0, 0]<br/>class = B>, fillcolor="#47e539"] ;
260 -> 282 ;
283 [label=<gini = 0.0<br/>samples = 3<br/>value = [0, 0, 0, 3]<br/>class = D>, fillcolor="#d739e5"] ;
259 -> 283 ;
284 [label=<Var_1 &le; 2.5<br/>gini = 0.698<br/>samples = 80<br/>value = [28, 9, 13, 30]<br/>class = D>, fillcolor="#fdf7fe"] ;
220 -> 284 ;
285 [label=<Work_Experience &le; 7.0<br/>gini = 0.722<br/>samples = 18<br/>value = [6, 3, 6, 3]<br/>class = A>, fillcolor="#ffffff"] ;
284 -> 285 ;
286 [label=<ID &le; 1917.0<br/>gini = 0.651<br/>samples = 13<br/>value = [5, 3, 5, 0]<br/>class = A>, fillcolor="#ffffff"] ;
285 -> 286 ;
287 [label=<ID &le; 1306.0<br/>gini = 0.645<br/>samples = 11<br/>value = [5, 3, 3, 0]<br/>class = A>, fillcolor="#f8e0ce"] ;
286 -> 287 ;
288 [label=<Work_Experience &le; 1.5<br/>gini = 0.656<br/>samples = 8<br/>value = [2, 3, 3, 0]<br/>class = B>, fillcolor="#ffffff"] ;
287 -> 288 ;
289 [label=<ID &le; 901.5<br/>gini = 0.48<br/>samples = 5<br/>value = [0, 3, 2, 0]<br/>class = B>, fillcolor="#c2f6bd"] ;
288 -> 289 ;
290 [label=<Age &le; 6.5<br/>gini = 0.444<br/>samples = 3<br/>value = [0, 1, 2, 0]<br/>class = C>, fillcolor="#9ccef2"] ;
289 -> 290 ;
291 [label=<gini = 0.0<br/>samples = 1<br/>value = [0, 1, 0, 0]<br/>class = B>, fillcolor="#47e539"] ;
290 -> 291 ;
292 [label=<gini = 0.0<br/>samples = 2<br/>value = [0, 0, 2, 0]<br/>class = C>, fillcolor="#399de5"] ;
290 -> 292 ;
293 [label=<gini = 0.0<br/>samples = 2<br/>value = [0, 2, 0, 0]<br/>class = B>, fillcolor="#47e539"] ;
289 -> 293 ;
294 [label=<Age &le; 8.0<br/>gini = 0.444<br/>samples = 3<br/>value = [2, 0, 1, 0]<br/>class = A>, fillcolor="#f2c09c"] ;
288 -> 294 ;
295 [label=<gini = 0.0<br/>samples = 2<br/>value = [2, 0, 0, 0]<br/>class = A>, fillcolor="#e58139"] ;
294 -> 295 ;
296 [label=<gini = 0.0<br/>samples = 1<br/>value = [0, 0, 1, 0]<br/>class = C>, fillcolor="#399de5"] ;
294 -> 296 ;
297 [label=<gini = 0.0<br/>samples = 3<br/>value = [3, 0, 0, 0]<br/>class = A>, fillcolor="#e58139"] ;
287 -> 297 ;
298 [label=<gini = 0.0<br/>samples = 2<br/>value = [0, 0, 2, 0]<br/>class = C>, fillcolor="#399de5"] ;
286 -> 298 ;
299 [label=<Spending_Score &le; 1.5<br/>gini = 0.56<br/>samples = 5<br/>value = [1, 0, 1, 3]<br/>class = D>, fillcolor="#eb9cf2"] ;
285 -> 299 ;
300 [label=<gini = 0.0<br/>samples = 1<br/>value = [0, 0, 1, 0]<br/>class = C>, fillcolor="#399de5"] ;
299 -> 300 ;
301 [label=<Var_1 &le; 1.5<br/>gini = 0.375<br/>samples = 4<br/>value = [1, 0, 0, 3]<br/>class = D>, fillcolor="#e47bee"] ;
299 -> 301 ;
302 [label=<gini = 0.0<br/>samples = 1<br/>value = [1, 0, 0, 0]<br/>class = A>, fillcolor="#e58139"] ;
301 -> 302 ;
303 [label=<gini = 0.0<br/>samples = 3<br/>value = [0, 0, 0, 3]<br/>class = D>, fillcolor="#d739e5"] ;
301 -> 303 ;
304 [label=<Profession &le; 3.5<br/>gini = 0.662<br/>samples = 62<br/>value = [22, 6, 7, 27]<br/>class = D>, fillcolor="#fae6fc"] ;
284 -> 304 ;
305 [label=<Work_Experience &le; 9.5<br/>gini = 0.682<br/>samples = 41<br/>value = [17.0, 5.0, 5.0, 14.0]<br/>class = A>, fillcolor="#fcf1e9"] ;
304 -> 305 ;
306 [label=<ID &le; 2014.5<br/>gini = 0.694<br/>samples = 38<br/>value = [14, 5, 5, 14]<br/>class = A>, fillcolor="#ffffff"] ;
305 -> 306 ;
307 [label=<ID &le; 1563.5<br/>gini = 0.699<br/>samples = 36<br/>value = [14, 5, 5, 12]<br/>class = A>, fillcolor="#fdf4ee"] ;
306 -> 307 ;
308 [label=<Age &le; 7.5<br/>gini = 0.711<br/>samples = 29<br/>value = [9, 4, 5, 11]<br/>class = D>, fillcolor="#fbebfc"] ;
307 -> 308 ;
309 [label=<Work_Experience &le; 7.5<br/>gini = 0.544<br/>samples = 13<br/>value = [3, 0, 2, 8]<br/>class = D>, fillcolor="#eb9cf2"] ;
308 -> 309 ;
310 [label=<Family_Size &le; 1.5<br/>gini = 0.43<br/>samples = 11<br/>value = [2, 0, 1, 8]<br/>class = D>, fillcolor="#e47bee"] ;
309 -> 310 ;
311 [label=<gini = 0.0<br/>samples = 5<br/>value = [0, 0, 0, 5]<br/>class = D>, fillcolor="#d739e5"] ;
310 -> 311 ;
312 [label=<Family_Size &le; 2.5<br/>gini = 0.611<br/>samples = 6<br/>value = [2, 0, 1, 3]<br/>class = D>, fillcolor="#f5cef8"] ;
310 -> 312 ;
313 [label=<Var_1 &le; 4.0<br/>gini = 0.444<br/>samples = 3<br/>value = [2, 0, 1, 0]<br/>class = A>, fillcolor="#f2c09c"] ;
312 -> 313 ;
314 [label=<gini = 0.0<br/>samples = 1<br/>value = [0, 0, 1, 0]<br/>class = C>, fillcolor="#399de5"] ;
313 -> 314 ;
315 [label=<gini = 0.0<br/>samples = 2<br/>value = [2, 0, 0, 0]<br/>class = A>, fillcolor="#e58139"] ;
313 -> 315 ;
316 [label=<gini = 0.0<br/>samples = 3<br/>value = [0, 0, 0, 3]<br/>class = D>, fillcolor="#d739e5"] ;
312 -> 316 ;
317 [label=<Var_1 &le; 4.0<br/>gini = 0.5<br/>samples = 2<br/>value = [1, 0, 1, 0]<br/>class = A>, fillcolor="#ffffff"] ;
309 -> 317 ;
318 [label=<gini = 0.0<br/>samples = 1<br/>value = [0, 0, 1, 0]<br/>class = C>, fillcolor="#399de5"] ;
317 -> 318 ;
319 [label=<gini = 0.0<br/>samples = 1<br/>value = [1, 0, 0, 0]<br/>class = A>, fillcolor="#e58139"] ;
317 -> 319 ;
320 [label=<ID &le; 533.0<br/>gini = 0.727<br/>samples = 16<br/>value = [6, 4, 3, 3]<br/>class = A>, fillcolor="#fbeade"] ;
308 -> 320 ;
321 [label=<ID &le; 157.5<br/>gini = 0.375<br/>samples = 4<br/>value = [3, 0, 0, 1]<br/>class = A>, fillcolor="#eeab7b"] ;
320 -> 321 ;
322 [label=<gini = 0.0<br/>samples = 1<br/>value = [0, 0, 0, 1]<br/>class = D>, fillcolor="#d739e5"] ;
321 -> 322 ;
323 [label=<gini = 0.0<br/>samples = 3<br/>value = [3, 0, 0, 0]<br/>class = A>, fillcolor="#e58139"] ;
321 -> 323 ;
324 [label=<ID &le; 766.0<br/>gini = 0.736<br/>samples = 12<br/>value = [3, 4, 3, 2]<br/>class = B>, fillcolor="#ebfce9"] ;
320 -> 324 ;
325 [label=<gini = 0.0<br/>samples = 2<br/>value = [0, 2, 0, 0]<br/>class = B>, fillcolor="#47e539"] ;
324 -> 325 ;
326 [label=<Var_1 &le; 4.0<br/>gini = 0.74<br/>samples = 10<br/>value = [3, 2, 3, 2]<br/>class = A>, fillcolor="#ffffff"] ;
324 -> 326 ;
327 [label=<Family_Size &le; 2.5<br/>gini = 0.444<br/>samples = 3<br/>value = [2, 0, 0, 1]<br/>class = A>, fillcolor="#f2c09c"] ;
326 -> 327 ;
328 [label=<gini = 0.0<br/>samples = 1<br/>value = [0, 0, 0, 1]<br/>class = D>, fillcolor="#d739e5"] ;
327 -> 328 ;
329 [label=<gini = 0.0<br/>samples = 2<br/>value = [2, 0, 0, 0]<br/>class = A>, fillcolor="#e58139"] ;
327 -> 329 ;
330 [label=<Work_Experience &le; 5.0<br/>gini = 0.694<br/>samples = 7<br/>value = [1, 2, 3, 1]<br/>class = C>, fillcolor="#d7ebfa"] ;
326 -> 330 ;
331 [label=<ID &le; 1540.0<br/>gini = 0.611<br/>samples = 6<br/>value = [0, 2, 3, 1]<br/>class = C>, fillcolor="#cee6f8"] ;
330 -> 331 ;
332 [label=<ID &le; 900.0<br/>gini = 0.48<br/>samples = 5<br/>value = [0, 2, 3, 0]<br/>class = C>, fillcolor="#bddef6"] ;
331 -> 332 ;
333 [label=<gini = 0.0<br/>samples = 1<br/>value = [0, 1, 0, 0]<br/>class = B>, fillcolor="#47e539"] ;
332 -> 333 ;
334 [label=<Ever_Married &le; 0.5<br/>gini = 0.375<br/>samples = 4<br/>value = [0, 1, 3, 0]<br/>class = C>, fillcolor="#7bbeee"] ;
332 -> 334 ;
335 [label=<gini = 0.0<br/>samples = 3<br/>value = [0, 0, 3, 0]<br/>class = C>, fillcolor="#399de5"] ;
334 -> 335 ;
336 [label=<gini = 0.0<br/>samples = 1<br/>value = [0, 1, 0, 0]<br/>class = B>, fillcolor="#47e539"] ;
334 -> 336 ;
337 [label=<gini = 0.0<br/>samples = 1<br/>value = [0, 0, 0, 1]<br/>class = D>, fillcolor="#d739e5"] ;
331 -> 337 ;
338 [label=<gini = 0.0<br/>samples = 1<br/>value = [1, 0, 0, 0]<br/>class = A>, fillcolor="#e58139"] ;
330 -> 338 ;
339 [label=<Work_Experience &le; 4.0<br/>gini = 0.449<br/>samples = 7<br/>value = [5, 1, 0, 1]<br/>class = A>, fillcolor="#eeab7b"] ;
307 -> 339 ;
340 [label=<gini = 0.0<br/>samples = 5<br/>value = [5, 0, 0, 0]<br/>class = A>, fillcolor="#e58139"] ;
339 -> 340 ;
341 [label=<Family_Size &le; 1.5<br/>gini = 0.5<br/>samples = 2<br/>value = [0, 1, 0, 1]<br/>class = B>, fillcolor="#ffffff"] ;
339 -> 341 ;
342 [label=<gini = 0.0<br/>samples = 1<br/>value = [0, 0, 0, 1]<br/>class = D>, fillcolor="#d739e5"] ;
341 -> 342 ;
343 [label=<gini = 0.0<br/>samples = 1<br/>value = [0, 1, 0, 0]<br/>class = B>, fillcolor="#47e539"] ;
341 -> 343 ;
344 [label=<gini = 0.0<br/>samples = 2<br/>value = [0, 0, 0, 2]<br/>class = D>, fillcolor="#d739e5"] ;
306 -> 344 ;
345 [label=<gini = 0.0<br/>samples = 3<br/>value = [3, 0, 0, 0]<br/>class = A>, fillcolor="#e58139"] ;
305 -> 345 ;
346 [label=<Age &le; 8.5<br/>gini = 0.549<br/>samples = 21<br/>value = [5, 1, 2, 13]<br/>class = D>, fillcolor="#eb9cf2"] ;
304 -> 346 ;
347 [label=<Spending_Score &le; 1.5<br/>gini = 0.414<br/>samples = 16<br/>value = [2, 1, 1, 12]<br/>class = D>, fillcolor="#e272ec"] ;
346 -> 347 ;
348 [label=<ID &le; 675.0<br/>gini = 0.5<br/>samples = 2<br/>value = [1, 1, 0, 0]<br/>class = A>, fillcolor="#ffffff"] ;
347 -> 348 ;
349 [label=<gini = 0.0<br/>samples = 1<br/>value = [0, 1, 0, 0]<br/>class = B>, fillcolor="#47e539"] ;
348 -> 349 ;
350 [label=<gini = 0.0<br/>samples = 1<br/>value = [1, 0, 0, 0]<br/>class = A>, fillcolor="#e58139"] ;
348 -> 350 ;
351 [label=<Age &le; 6.5<br/>gini = 0.255<br/>samples = 14<br/>value = [1, 0, 1, 12]<br/>class = D>, fillcolor="#dd57e9"] ;
347 -> 351 ;
352 [label=<ID &le; 1934.5<br/>gini = 0.56<br/>samples = 5<br/>value = [1, 0, 1, 3]<br/>class = D>, fillcolor="#eb9cf2"] ;
351 -> 352 ;
353 [label=<Work_Experience &le; 4.5<br/>gini = 0.375<br/>samples = 4<br/>value = [0, 0, 1, 3]<br/>class = D>, fillcolor="#e47bee"] ;
352 -> 353 ;
354 [label=<Graduated &le; 0.5<br/>gini = 0.5<br/>samples = 2<br/>value = [0, 0, 1, 1]<br/>class = C>, fillcolor="#ffffff"] ;
353 -> 354 ;
355 [label=<gini = 0.0<br/>samples = 1<br/>value = [0, 0, 0, 1]<br/>class = D>, fillcolor="#d739e5"] ;
354 -> 355 ;
356 [label=<gini = 0.0<br/>samples = 1<br/>value = [0, 0, 1, 0]<br/>class = C>, fillcolor="#399de5"] ;
354 -> 356 ;
357 [label=<gini = 0.0<br/>samples = 2<br/>value = [0, 0, 0, 2]<br/>class = D>, fillcolor="#d739e5"] ;
353 -> 357 ;
358 [label=<gini = 0.0<br/>samples = 1<br/>value = [1, 0, 0, 0]<br/>class = A>, fillcolor="#e58139"] ;
352 -> 358 ;
359 [label=<gini = 0.0<br/>samples = 9<br/>value = [0, 0, 0, 9]<br/>class = D>, fillcolor="#d739e5"] ;
351 -> 359 ;
360 [label=<Family_Size &le; 1.5<br/>gini = 0.56<br/>samples = 5<br/>value = [3, 0, 1, 1]<br/>class = A>, fillcolor="#f2c09c"] ;
346 -> 360 ;
361 [label=<gini = 0.0<br/>samples = 1<br/>value = [0, 0, 0, 1]<br/>class = D>, fillcolor="#d739e5"] ;
360 -> 361 ;
362 [label=<Var_1 &le; 6.0<br/>gini = 0.375<br/>samples = 4<br/>value = [3, 0, 1, 0]<br/>class = A>, fillcolor="#eeab7b"] ;
360 -> 362 ;
363 [label=<gini = 0.0<br/>samples = 3<br/>value = [3, 0, 0, 0]<br/>class = A>, fillcolor="#e58139"] ;
362 -> 363 ;
364 [label=<gini = 0.0<br/>samples = 1<br/>value = [0, 0, 1, 0]<br/>class = C>, fillcolor="#399de5"] ;
362 -> 364 ;
365 [label=<Graduated &le; 0.5<br/>gini = 0.636<br/>samples = 166<br/>value = [70.0, 14.0, 13.0, 69.0]<br/>class = A>, fillcolor="#fffefd"] ;
199 -> 365 ;
366 [label=<ID &le; 142.0<br/>gini = 0.657<br/>samples = 77<br/>value = [26, 7, 9, 35]<br/>class = D>, fillcolor="#f8dcfa"] ;
365 -> 366 ;
367 [label=<gini = 0.0<br/>samples = 3<br/>value = [3, 0, 0, 0]<br/>class = A>, fillcolor="#e58139"] ;
366 -> 367 ;
368 [label=<Work_Experience &le; 6.5<br/>gini = 0.656<br/>samples = 74<br/>value = [23, 7, 9, 35]<br/>class = D>, fillcolor="#f6d0f9"] ;
366 -> 368 ;
369 [label=<Profession &le; 3.5<br/>gini = 0.6<br/>samples = 55<br/>value = [20.0, 4.0, 3.0, 28.0]<br/>class = D>, fillcolor="#f6d2f9"] ;
368 -> 369 ;
370 [label=<Age &le; 13.5<br/>gini = 0.606<br/>samples = 31<br/>value = [15, 3, 1, 12]<br/>class = A>, fillcolor="#fbebe0"] ;
369 -> 370 ;
371 [label=<ID &le; 1644.5<br/>gini = 0.524<br/>samples = 27<br/>value = [15, 0, 1, 11]<br/>class = A>, fillcolor="#f8e0cd"] ;
370 -> 371 ;
372 [label=<ID &le; 1366.0<br/>gini = 0.484<br/>samples = 17<br/>value = [7, 0, 0, 10]<br/>class = D>, fillcolor="#f3c4f7"] ;
371 -> 372 ;
373 [label=<Work_Experience &le; 0.5<br/>gini = 0.486<br/>samples = 12<br/>value = [7, 0, 0, 5]<br/>class = A>, fillcolor="#f8dbc6"] ;
372 -> 373 ;
374 [label=<gini = 0.0<br/>samples = 4<br/>value = [4, 0, 0, 0]<br/>class = A>, fillcolor="#e58139"] ;
373 -> 374 ;
375 [label=<Gender &le; 0.5<br/>gini = 0.469<br/>samples = 8<br/>value = [3, 0, 0, 5]<br/>class = D>, fillcolor="#efb0f5"] ;
373 -> 375 ;
376 [label=<Profession &le; 1.5<br/>gini = 0.48<br/>samples = 5<br/>value = [3, 0, 0, 2]<br/>class = A>, fillcolor="#f6d5bd"] ;
375 -> 376 ;
377 [label=<gini = 0.0<br/>samples = 2<br/>value = [2, 0, 0, 0]<br/>class = A>, fillcolor="#e58139"] ;
376 -> 377 ;
378 [label=<Work_Experience &le; 5.5<br/>gini = 0.444<br/>samples = 3<br/>value = [1, 0, 0, 2]<br/>class = D>, fillcolor="#eb9cf2"] ;
376 -> 378 ;
379 [label=<gini = 0.0<br/>samples = 2<br/>value = [0, 0, 0, 2]<br/>class = D>, fillcolor="#d739e5"] ;
378 -> 379 ;
380 [label=<gini = 0.0<br/>samples = 1<br/>value = [1, 0, 0, 0]<br/>class = A>, fillcolor="#e58139"] ;
378 -> 380 ;
381 [label=<gini = 0.0<br/>samples = 3<br/>value = [0, 0, 0, 3]<br/>class = D>, fillcolor="#d739e5"] ;
375 -> 381 ;
382 [label=<gini = 0.0<br/>samples = 5<br/>value = [0, 0, 0, 5]<br/>class = D>, fillcolor="#d739e5"] ;
372 -> 382 ;
383 [label=<ID &le; 2003.0<br/>gini = 0.34<br/>samples = 10<br/>value = [8, 0, 1, 1]<br/>class = A>, fillcolor="#eb9d65"] ;
371 -> 383 ;
384 [label=<ID &le; 1932.0<br/>gini = 0.198<br/>samples = 9<br/>value = [8, 0, 0, 1]<br/>class = A>, fillcolor="#e89152"] ;
383 -> 384 ;
385 [label=<gini = 0.0<br/>samples = 7<br/>value = [7, 0, 0, 0]<br/>class = A>, fillcolor="#e58139"] ;
384 -> 385 ;
386 [label=<ID &le; 1951.0<br/>gini = 0.5<br/>samples = 2<br/>value = [1, 0, 0, 1]<br/>class = A>, fillcolor="#ffffff"] ;
384 -> 386 ;
387 [label=<gini = 0.0<br/>samples = 1<br/>value = [0, 0, 0, 1]<br/>class = D>, fillcolor="#d739e5"] ;
386 -> 387 ;
388 [label=<gini = 0.0<br/>samples = 1<br/>value = [1, 0, 0, 0]<br/>class = A>, fillcolor="#e58139"] ;
386 -> 388 ;
389 [label=<gini = 0.0<br/>samples = 1<br/>value = [0, 0, 1, 0]<br/>class = C>, fillcolor="#399de5"] ;
383 -> 389 ;
390 [label=<Var_1 &le; 4.5<br/>gini = 0.375<br/>samples = 4<br/>value = [0, 3, 0, 1]<br/>class = B>, fillcolor="#84ee7b"] ;
370 -> 390 ;
391 [label=<gini = 0.0<br/>samples = 3<br/>value = [0, 3, 0, 0]<br/>class = B>, fillcolor="#47e539"] ;
390 -> 391 ;
392 [label=<gini = 0.0<br/>samples = 1<br/>value = [0, 0, 0, 1]<br/>class = D>, fillcolor="#d739e5"] ;
390 -> 392 ;
393 [label=<ID &le; 1974.0<br/>gini = 0.503<br/>samples = 24<br/>value = [5, 1, 2, 16]<br/>class = D>, fillcolor="#e88cf0"] ;
369 -> 393 ;
394 [label=<ID &le; 1395.0<br/>gini = 0.476<br/>samples = 23<br/>value = [4, 1, 2, 16]<br/>class = D>, fillcolor="#e682ef"] ;
393 -> 394 ;
395 [label=<ID &le; 1014.5<br/>gini = 0.582<br/>samples = 14<br/>value = [4, 1, 1, 8]<br/>class = D>, fillcolor="#efb0f5"] ;
394 -> 395 ;
396 [label=<Gender &le; 0.5<br/>gini = 0.37<br/>samples = 9<br/>value = [1, 0, 1, 7]<br/>class = D>, fillcolor="#e16aec"] ;
395 -> 396 ;
397 [label=<gini = 0.0<br/>samples = 1<br/>value = [1, 0, 0, 0]<br/>class = A>, fillcolor="#e58139"] ;
396 -> 397 ;
398 [label=<Work_Experience &le; 0.5<br/>gini = 0.219<br/>samples = 8<br/>value = [0, 0, 1, 7]<br/>class = D>, fillcolor="#dd55e9"] ;
396 -> 398 ;
399 [label=<gini = 0.0<br/>samples = 5<br/>value = [0, 0, 0, 5]<br/>class = D>, fillcolor="#d739e5"] ;
398 -> 399 ;
400 [label=<Work_Experience &le; 1.5<br/>gini = 0.444<br/>samples = 3<br/>value = [0, 0, 1, 2]<br/>class = D>, fillcolor="#eb9cf2"] ;
398 -> 400 ;
401 [label=<gini = 0.0<br/>samples = 1<br/>value = [0, 0, 1, 0]<br/>class = C>, fillcolor="#399de5"] ;
400 -> 401 ;
402 [label=<gini = 0.0<br/>samples = 2<br/>value = [0, 0, 0, 2]<br/>class = D>, fillcolor="#d739e5"] ;
400 -> 402 ;
403 [label=<Spending_Score &le; 1.5<br/>gini = 0.56<br/>samples = 5<br/>value = [3, 1, 0, 1]<br/>class = A>, fillcolor="#f2c09c"] ;
395 -> 403 ;
404 [label=<gini = 0.0<br/>samples = 1<br/>value = [0, 0, 0, 1]<br/>class = D>, fillcolor="#d739e5"] ;
403 -> 404 ;
405 [label=<ID &le; 1253.0<br/>gini = 0.375<br/>samples = 4<br/>value = [3, 1, 0, 0]<br/>class = A>, fillcolor="#eeab7b"] ;
403 -> 405 ;
406 [label=<gini = 0.0<br/>samples = 2<br/>value = [2, 0, 0, 0]<br/>class = A>, fillcolor="#e58139"] ;
405 -> 406 ;
407 [label=<ID &le; 1362.0<br/>gini = 0.5<br/>samples = 2<br/>value = [1, 1, 0, 0]<br/>class = A>, fillcolor="#ffffff"] ;
405 -> 407 ;
408 [label=<gini = 0.0<br/>samples = 1<br/>value = [0, 1, 0, 0]<br/>class = B>, fillcolor="#47e539"] ;
407 -> 408 ;
409 [label=<gini = 0.0<br/>samples = 1<br/>value = [1, 0, 0, 0]<br/>class = A>, fillcolor="#e58139"] ;
407 -> 409 ;
410 [label=<Gender &le; 0.5<br/>gini = 0.198<br/>samples = 9<br/>value = [0, 0, 1, 8]<br/>class = D>, fillcolor="#dc52e8"] ;
394 -> 410 ;
411 [label=<Var_1 &le; 4.0<br/>gini = 0.5<br/>samples = 2<br/>value = [0, 0, 1, 1]<br/>class = C>, fillcolor="#ffffff"] ;
410 -> 411 ;
412 [label=<gini = 0.0<br/>samples = 1<br/>value = [0, 0, 0, 1]<br/>class = D>, fillcolor="#d739e5"] ;
411 -> 412 ;
413 [label=<gini = 0.0<br/>samples = 1<br/>value = [0, 0, 1, 0]<br/>class = C>, fillcolor="#399de5"] ;
411 -> 413 ;
414 [label=<gini = 0.0<br/>samples = 7<br/>value = [0, 0, 0, 7]<br/>class = D>, fillcolor="#d739e5"] ;
410 -> 414 ;
415 [label=<gini = 0.0<br/>samples = 1<br/>value = [1, 0, 0, 0]<br/>class = A>, fillcolor="#e58139"] ;
393 -> 415 ;
416 [label=<Gender &le; 0.5<br/>gini = 0.715<br/>samples = 19<br/>value = [3, 3, 6, 7]<br/>class = D>, fillcolor="#fcf0fd"] ;
368 -> 416 ;
417 [label=<Work_Experience &le; 10.5<br/>gini = 0.571<br/>samples = 7<br/>value = [0, 2, 4, 1]<br/>class = C>, fillcolor="#b0d8f5"] ;
416 -> 417 ;
418 [label=<gini = 0.0<br/>samples = 4<br/>value = [0, 0, 4, 0]<br/>class = C>, fillcolor="#399de5"] ;
417 -> 418 ;
419 [label=<ID &le; 1536.0<br/>gini = 0.444<br/>samples = 3<br/>value = [0, 2, 0, 1]<br/>class = B>, fillcolor="#a3f29c"] ;
417 -> 419 ;
420 [label=<gini = 0.0<br/>samples = 2<br/>value = [0, 2, 0, 0]<br/>class = B>, fillcolor="#47e539"] ;
419 -> 420 ;
421 [label=<gini = 0.0<br/>samples = 1<br/>value = [0, 0, 0, 1]<br/>class = D>, fillcolor="#d739e5"] ;
419 -> 421 ;
422 [label=<Work_Experience &le; 14.5<br/>gini = 0.653<br/>samples = 12<br/>value = [3, 1, 2, 6]<br/>class = D>, fillcolor="#f2bdf6"] ;
416 -> 422 ;
423 [label=<Profession &le; 2.5<br/>gini = 0.54<br/>samples = 10<br/>value = [3, 0, 1, 6]<br/>class = D>, fillcolor="#eeaaf4"] ;
422 -> 423 ;
424 [label=<gini = 0.0<br/>samples = 4<br/>value = [0, 0, 0, 4]<br/>class = D>, fillcolor="#d739e5"] ;
423 -> 424 ;
425 [label=<ID &le; 370.0<br/>gini = 0.611<br/>samples = 6<br/>value = [3, 0, 1, 2]<br/>class = A>, fillcolor="#f8e0ce"] ;
423 -> 425 ;
426 [label=<gini = 0.0<br/>samples = 2<br/>value = [0, 0, 0, 2]<br/>class = D>, fillcolor="#d739e5"] ;
425 -> 426 ;
427 [label=<Var_1 &le; 1.5<br/>gini = 0.375<br/>samples = 4<br/>value = [3, 0, 1, 0]<br/>class = A>, fillcolor="#eeab7b"] ;
425 -> 427 ;
428 [label=<gini = 0.0<br/>samples = 1<br/>value = [0, 0, 1, 0]<br/>class = C>, fillcolor="#399de5"] ;
427 -> 428 ;
429 [label=<gini = 0.0<br/>samples = 3<br/>value = [3, 0, 0, 0]<br/>class = A>, fillcolor="#e58139"] ;
427 -> 429 ;
430 [label=<Profession &le; 0.5<br/>gini = 0.5<br/>samples = 2<br/>value = [0, 1, 1, 0]<br/>class = B>, fillcolor="#ffffff"] ;
422 -> 430 ;
431 [label=<gini = 0.0<br/>samples = 1<br/>value = [0, 0, 1, 0]<br/>class = C>, fillcolor="#399de5"] ;
430 -> 431 ;
432 [label=<gini = 0.0<br/>samples = 1<br/>value = [0, 1, 0, 0]<br/>class = B>, fillcolor="#47e539"] ;
430 -> 432 ;
433 [label=<Work_Experience &le; 4.5<br/>gini = 0.601<br/>samples = 89<br/>value = [44, 7, 4, 34]<br/>class = A>, fillcolor="#fae8db"] ;
365 -> 433 ;
434 [label=<Var_1 &le; 2.5<br/>gini = 0.58<br/>samples = 54<br/>value = [31, 6, 2, 15]<br/>class = A>, fillcolor="#f4cbae"] ;
433 -> 434 ;
435 [label=<Family_Size &le; 4.5<br/>gini = 0.18<br/>samples = 10<br/>value = [9, 0, 0, 1]<br/>class = A>, fillcolor="#e88f4f"] ;
434 -> 435 ;
436 [label=<gini = 0.0<br/>samples = 9<br/>value = [9, 0, 0, 0]<br/>class = A>, fillcolor="#e58139"] ;
435 -> 436 ;
437 [label=<gini = 0.0<br/>samples = 1<br/>value = [0, 0, 0, 1]<br/>class = D>, fillcolor="#d739e5"] ;
435 -> 437 ;
438 [label=<ID &le; 730.0<br/>gini = 0.628<br/>samples = 44<br/>value = [22, 6, 2, 14]<br/>class = A>, fillcolor="#f8ddca"] ;
434 -> 438 ;
439 [label=<ID &le; 55.0<br/>gini = 0.5<br/>samples = 6<br/>value = [1, 1, 0, 4]<br/>class = D>, fillcolor="#e788ef"] ;
438 -> 439 ;
440 [label=<gini = 0.0<br/>samples = 1<br/>value = [0, 1, 0, 0]<br/>class = B>, fillcolor="#47e539"] ;
439 -> 440 ;
441 [label=<Ever_Married &le; 0.5<br/>gini = 0.32<br/>samples = 5<br/>value = [1, 0, 0, 4]<br/>class = D>, fillcolor="#e16aec"] ;
439 -> 441 ;
442 [label=<gini = 0.0<br/>samples = 4<br/>value = [0, 0, 0, 4]<br/>class = D>, fillcolor="#d739e5"] ;
441 -> 442 ;
443 [label=<gini = 0.0<br/>samples = 1<br/>value = [1, 0, 0, 0]<br/>class = A>, fillcolor="#e58139"] ;
441 -> 443 ;
444 [label=<Family_Size &le; 2.5<br/>gini = 0.605<br/>samples = 38<br/>value = [21.0, 5.0, 2.0, 10.0]<br/>class = A>, fillcolor="#f5ceb1"] ;
438 -> 444 ;
445 [label=<Work_Experience &le; 0.5<br/>gini = 0.698<br/>samples = 24<br/>value = [9, 5, 2, 8]<br/>class = A>, fillcolor="#fdf7f3"] ;
444 -> 445 ;
446 [label=<Profession &le; 1.5<br/>gini = 0.694<br/>samples = 7<br/>value = [1, 3, 2, 1]<br/>class = B>, fillcolor="#dafad7"] ;
445 -> 446 ;
447 [label=<Family_Size &le; 0.5<br/>gini = 0.48<br/>samples = 5<br/>value = [0, 3, 2, 0]<br/>class = B>, fillcolor="#c2f6bd"] ;
446 -> 447 ;
448 [label=<gini = 0.0<br/>samples = 2<br/>value = [0, 2, 0, 0]<br/>class = B>, fillcolor="#47e539"] ;
447 -> 448 ;
449 [label=<Age &le; 12.5<br/>gini = 0.444<br/>samples = 3<br/>value = [0, 1, 2, 0]<br/>class = C>, fillcolor="#9ccef2"] ;
447 -> 449 ;
450 [label=<gini = 0.0<br/>samples = 1<br/>value = [0, 1, 0, 0]<br/>class = B>, fillcolor="#47e539"] ;
449 -> 450 ;
451 [label=<gini = 0.0<br/>samples = 2<br/>value = [0, 0, 2, 0]<br/>class = C>, fillcolor="#399de5"] ;
449 -> 451 ;
452 [label=<Profession &le; 3.5<br/>gini = 0.5<br/>samples = 2<br/>value = [1, 0, 0, 1]<br/>class = A>, fillcolor="#ffffff"] ;
446 -> 452 ;
453 [label=<gini = 0.0<br/>samples = 1<br/>value = [1, 0, 0, 0]<br/>class = A>, fillcolor="#e58139"] ;
452 -> 453 ;
454 [label=<gini = 0.0<br/>samples = 1<br/>value = [0, 0, 0, 1]<br/>class = D>, fillcolor="#d739e5"] ;
452 -> 454 ;
455 [label=<Spending_Score &le; 1.5<br/>gini = 0.595<br/>samples = 17<br/>value = [8, 2, 0, 7]<br/>class = A>, fillcolor="#fcf2eb"] ;
445 -> 455 ;
456 [label=<ID &le; 1913.0<br/>gini = 0.375<br/>samples = 4<br/>value = [3, 1, 0, 0]<br/>class = A>, fillcolor="#eeab7b"] ;
455 -> 456 ;
457 [label=<gini = 0.0<br/>samples = 3<br/>value = [3, 0, 0, 0]<br/>class = A>, fillcolor="#e58139"] ;
456 -> 457 ;
458 [label=<gini = 0.0<br/>samples = 1<br/>value = [0, 1, 0, 0]<br/>class = B>, fillcolor="#47e539"] ;
456 -> 458 ;
459 [label=<Family_Size &le; 0.5<br/>gini = 0.556<br/>samples = 13<br/>value = [5, 1, 0, 7]<br/>class = D>, fillcolor="#f5cef8"] ;
455 -> 459 ;
460 [label=<ID &le; 2030.5<br/>gini = 0.32<br/>samples = 5<br/>value = [4, 0, 0, 1]<br/>class = A>, fillcolor="#eca06a"] ;
459 -> 460 ;
461 [label=<gini = 0.0<br/>samples = 4<br/>value = [4, 0, 0, 0]<br/>class = A>, fillcolor="#e58139"] ;
460 -> 461 ;
462 [label=<gini = 0.0<br/>samples = 1<br/>value = [0, 0, 0, 1]<br/>class = D>, fillcolor="#d739e5"] ;
460 -> 462 ;
463 [label=<ID &le; 1210.0<br/>gini = 0.406<br/>samples = 8<br/>value = [1, 1, 0, 6]<br/>class = D>, fillcolor="#e272ec"] ;
459 -> 463 ;
464 [label=<Profession &le; 1.5<br/>gini = 0.5<br/>samples = 2<br/>value = [1, 0, 0, 1]<br/>class = A>, fillcolor="#ffffff"] ;
463 -> 464 ;
465 [label=<gini = 0.0<br/>samples = 1<br/>value = [0, 0, 0, 1]<br/>class = D>, fillcolor="#d739e5"] ;
464 -> 465 ;
466 [label=<gini = 0.0<br/>samples = 1<br/>value = [1, 0, 0, 0]<br/>class = A>, fillcolor="#e58139"] ;
464 -> 466 ;
467 [label=<Age &le; 12.5<br/>gini = 0.278<br/>samples = 6<br/>value = [0, 1, 0, 5]<br/>class = D>, fillcolor="#df61ea"] ;
463 -> 467 ;
468 [label=<gini = 0.0<br/>samples = 4<br/>value = [0, 0, 0, 4]<br/>class = D>, fillcolor="#d739e5"] ;
467 -> 468 ;
469 [label=<Profession &le; 3.0<br/>gini = 0.5<br/>samples = 2<br/>value = [0, 1, 0, 1]<br/>class = B>, fillcolor="#ffffff"] ;
467 -> 469 ;
470 [label=<gini = 0.0<br/>samples = 1<br/>value = [0, 1, 0, 0]<br/>class = B>, fillcolor="#47e539"] ;
469 -> 470 ;
471 [label=<gini = 0.0<br/>samples = 1<br/>value = [0, 0, 0, 1]<br/>class = D>, fillcolor="#d739e5"] ;
469 -> 471 ;
472 [label=<ID &le; 1827.5<br/>gini = 0.245<br/>samples = 14<br/>value = [12, 0, 0, 2]<br/>class = A>, fillcolor="#e9965a"] ;
444 -> 472 ;
473 [label=<Profession &le; 0.5<br/>gini = 0.153<br/>samples = 12<br/>value = [11, 0, 0, 1]<br/>class = A>, fillcolor="#e78c4b"] ;
472 -> 473 ;
474 [label=<ID &le; 1225.5<br/>gini = 0.375<br/>samples = 4<br/>value = [3, 0, 0, 1]<br/>class = A>, fillcolor="#eeab7b"] ;
473 -> 474 ;
475 [label=<Work_Experience &le; 2.0<br/>gini = 0.5<br/>samples = 2<br/>value = [1, 0, 0, 1]<br/>class = A>, fillcolor="#ffffff"] ;
474 -> 475 ;
476 [label=<gini = 0.0<br/>samples = 1<br/>value = [0, 0, 0, 1]<br/>class = D>, fillcolor="#d739e5"] ;
475 -> 476 ;
477 [label=<gini = 0.0<br/>samples = 1<br/>value = [1, 0, 0, 0]<br/>class = A>, fillcolor="#e58139"] ;
475 -> 477 ;
478 [label=<gini = 0.0<br/>samples = 2<br/>value = [2, 0, 0, 0]<br/>class = A>, fillcolor="#e58139"] ;
474 -> 478 ;
479 [label=<gini = 0.0<br/>samples = 8<br/>value = [8, 0, 0, 0]<br/>class = A>, fillcolor="#e58139"] ;
473 -> 479 ;
480 [label=<Ever_Married &le; 0.5<br/>gini = 0.5<br/>samples = 2<br/>value = [1, 0, 0, 1]<br/>class = A>, fillcolor="#ffffff"] ;
472 -> 480 ;
481 [label=<gini = 0.0<br/>samples = 1<br/>value = [1, 0, 0, 0]<br/>class = A>, fillcolor="#e58139"] ;
480 -> 481 ;
482 [label=<gini = 0.0<br/>samples = 1<br/>value = [0, 0, 0, 1]<br/>class = D>, fillcolor="#d739e5"] ;
480 -> 482 ;
483 [label=<Age &le; 10.5<br/>gini = 0.563<br/>samples = 35<br/>value = [13, 1, 2, 19]<br/>class = D>, fillcolor="#f4c9f8"] ;
433 -> 483 ;
484 [label=<Var_1 &le; 4.0<br/>gini = 0.656<br/>samples = 8<br/>value = [4, 1, 2, 1]<br/>class = A>, fillcolor="#f6d5bd"] ;
483 -> 484 ;
485 [label=<gini = 0.0<br/>samples = 1<br/>value = [0, 1, 0, 0]<br/>class = B>, fillcolor="#47e539"] ;
484 -> 485 ;
486 [label=<ID &le; 112.0<br/>gini = 0.571<br/>samples = 7<br/>value = [4, 0, 2, 1]<br/>class = A>, fillcolor="#f5cdb0"] ;
484 -> 486 ;
487 [label=<gini = 0.0<br/>samples = 1<br/>value = [0, 0, 1, 0]<br/>class = C>, fillcolor="#399de5"] ;
486 -> 487 ;
488 [label=<Work_Experience &le; 12.0<br/>gini = 0.5<br/>samples = 6<br/>value = [4, 0, 1, 1]<br/>class = A>, fillcolor="#efb388"] ;
486 -> 488 ;
489 [label=<Family_Size &le; 1.5<br/>gini = 0.625<br/>samples = 4<br/>value = [2, 0, 1, 1]<br/>class = A>, fillcolor="#f6d5bd"] ;
488 -> 489 ;
490 [label=<Profession &le; 4.0<br/>gini = 0.444<br/>samples = 3<br/>value = [2, 0, 1, 0]<br/>class = A>, fillcolor="#f2c09c"] ;
489 -> 490 ;
491 [label=<gini = 0.0<br/>samples = 2<br/>value = [2, 0, 0, 0]<br/>class = A>, fillcolor="#e58139"] ;
490 -> 491 ;
492 [label=<gini = 0.0<br/>samples = 1<br/>value = [0, 0, 1, 0]<br/>class = C>, fillcolor="#399de5"] ;
490 -> 492 ;
493 [label=<gini = 0.0<br/>samples = 1<br/>value = [0, 0, 0, 1]<br/>class = D>, fillcolor="#d739e5"] ;
489 -> 493 ;
494 [label=<gini = 0.0<br/>samples = 2<br/>value = [2, 0, 0, 0]<br/>class = A>, fillcolor="#e58139"] ;
488 -> 494 ;
495 [label=<Age &le; 13.5<br/>gini = 0.444<br/>samples = 27<br/>value = [9, 0, 0, 18]<br/>class = D>, fillcolor="#eb9cf2"] ;
483 -> 495 ;
496 [label=<Family_Size &le; 0.5<br/>gini = 0.386<br/>samples = 23<br/>value = [6, 0, 0, 17]<br/>class = D>, fillcolor="#e57fee"] ;
495 -> 496 ;
497 [label=<Age &le; 12.5<br/>gini = 0.5<br/>samples = 8<br/>value = [4, 0, 0, 4]<br/>class = A>, fillcolor="#ffffff"] ;
496 -> 497 ;
498 [label=<Age &le; 11.5<br/>gini = 0.444<br/>samples = 6<br/>value = [4, 0, 0, 2]<br/>class = A>, fillcolor="#f2c09c"] ;
497 -> 498 ;
499 [label=<Profession &le; 2.5<br/>gini = 0.444<br/>samples = 3<br/>value = [1, 0, 0, 2]<br/>class = D>, fillcolor="#eb9cf2"] ;
498 -> 499 ;
500 [label=<ID &le; 1477.5<br/>gini = 0.5<br/>samples = 2<br/>value = [1, 0, 0, 1]<br/>class = A>, fillcolor="#ffffff"] ;
499 -> 500 ;
501 [label=<gini = 0.0<br/>samples = 1<br/>value = [1, 0, 0, 0]<br/>class = A>, fillcolor="#e58139"] ;
500 -> 501 ;
502 [label=<gini = 0.0<br/>samples = 1<br/>value = [0, 0, 0, 1]<br/>class = D>, fillcolor="#d739e5"] ;
500 -> 502 ;
503 [label=<gini = 0.0<br/>samples = 1<br/>value = [0, 0, 0, 1]<br/>class = D>, fillcolor="#d739e5"] ;
499 -> 503 ;
504 [label=<gini = 0.0<br/>samples = 3<br/>value = [3, 0, 0, 0]<br/>class = A>, fillcolor="#e58139"] ;
498 -> 504 ;
505 [label=<gini = 0.0<br/>samples = 2<br/>value = [0, 0, 0, 2]<br/>class = D>, fillcolor="#d739e5"] ;
497 -> 505 ;
506 [label=<Profession &le; 1.5<br/>gini = 0.231<br/>samples = 15<br/>value = [2, 0, 0, 13]<br/>class = D>, fillcolor="#dd57e9"] ;
496 -> 506 ;
507 [label=<gini = 0.0<br/>samples = 7<br/>value = [0, 0, 0, 7]<br/>class = D>, fillcolor="#d739e5"] ;
506 -> 507 ;
508 [label=<ID &le; 432.5<br/>gini = 0.375<br/>samples = 8<br/>value = [2, 0, 0, 6]<br/>class = D>, fillcolor="#e47bee"] ;
506 -> 508 ;
509 [label=<gini = 0.0<br/>samples = 3<br/>value = [0, 0, 0, 3]<br/>class = D>, fillcolor="#d739e5"] ;
508 -> 509 ;
510 [label=<Age &le; 11.5<br/>gini = 0.48<br/>samples = 5<br/>value = [2, 0, 0, 3]<br/>class = D>, fillcolor="#f2bdf6"] ;
508 -> 510 ;
511 [label=<gini = 0.0<br/>samples = 2<br/>value = [0, 0, 0, 2]<br/>class = D>, fillcolor="#d739e5"] ;
510 -> 511 ;
512 [label=<Family_Size &le; 3.5<br/>gini = 0.444<br/>samples = 3<br/>value = [2, 0, 0, 1]<br/>class = A>, fillcolor="#f2c09c"] ;
510 -> 512 ;
513 [label=<gini = 0.0<br/>samples = 2<br/>value = [2, 0, 0, 0]<br/>class = A>, fillcolor="#e58139"] ;
512 -> 513 ;
514 [label=<gini = 0.0<br/>samples = 1<br/>value = [0, 0, 0, 1]<br/>class = D>, fillcolor="#d739e5"] ;
512 -> 514 ;
515 [label=<Work_Experience &le; 11.5<br/>gini = 0.375<br/>samples = 4<br/>value = [3, 0, 0, 1]<br/>class = A>, fillcolor="#eeab7b"] ;
495 -> 515 ;
516 [label=<gini = 0.0<br/>samples = 3<br/>value = [3, 0, 0, 0]<br/>class = A>, fillcolor="#e58139"] ;
515 -> 516 ;
517 [label=<gini = 0.0<br/>samples = 1<br/>value = [0, 0, 0, 1]<br/>class = D>, fillcolor="#d739e5"] ;
515 -> 517 ;
518 [label=<ID &le; 1466.0<br/>gini = 0.698<br/>samples = 38<br/>value = [8, 10, 4, 16]<br/>class = D>, fillcolor="#f6d5f9"] ;
198 -> 518 ;
519 [label=<Age &le; 13.5<br/>gini = 0.673<br/>samples = 34<br/>value = [5, 9, 4, 16]<br/>class = D>, fillcolor="#f4c8f8"] ;
518 -> 519 ;
520 [label=<Var_1 &le; 6.5<br/>gini = 0.704<br/>samples = 30<br/>value = [5, 9, 4, 12]<br/>class = D>, fillcolor="#f9e3fb"] ;
519 -> 520 ;
521 [label=<ID &le; 1156.5<br/>gini = 0.702<br/>samples = 28<br/>value = [5, 7, 4, 12]<br/>class = D>, fillcolor="#f5d0f9"] ;
520 -> 521 ;
522 [label=<Var_1 &le; 4.0<br/>gini = 0.72<br/>samples = 17<br/>value = [4, 6, 2, 5]<br/>class = B>, fillcolor="#f0fdee"] ;
521 -> 522 ;
523 [label=<Work_Experience &le; 8.5<br/>gini = 0.645<br/>samples = 11<br/>value = [1, 4, 1, 5]<br/>class = D>, fillcolor="#f9e3fb"] ;
522 -> 523 ;
524 [label=<Age &le; 11.5<br/>gini = 0.656<br/>samples = 8<br/>value = [1, 4, 1, 2]<br/>class = B>, fillcolor="#c2f6bd"] ;
523 -> 524 ;
525 [label=<ID &le; 485.0<br/>gini = 0.72<br/>samples = 5<br/>value = [1, 1, 1, 2]<br/>class = D>, fillcolor="#f5cef8"] ;
524 -> 525 ;
526 [label=<gini = 0.0<br/>samples = 2<br/>value = [0, 0, 0, 2]<br/>class = D>, fillcolor="#d739e5"] ;
525 -> 526 ;
527 [label=<Gender &le; 0.5<br/>gini = 0.667<br/>samples = 3<br/>value = [1, 1, 1, 0]<br/>class = A>, fillcolor="#ffffff"] ;
525 -> 527 ;
528 [label=<gini = 0.0<br/>samples = 1<br/>value = [0, 1, 0, 0]<br/>class = B>, fillcolor="#47e539"] ;
527 -> 528 ;
529 [label=<Ever_Married &le; 0.5<br/>gini = 0.5<br/>samples = 2<br/>value = [1, 0, 1, 0]<br/>class = A>, fillcolor="#ffffff"] ;
527 -> 529 ;
530 [label=<gini = 0.0<br/>samples = 1<br/>value = [1, 0, 0, 0]<br/>class = A>, fillcolor="#e58139"] ;
529 -> 530 ;
531 [label=<gini = 0.0<br/>samples = 1<br/>value = [0, 0, 1, 0]<br/>class = C>, fillcolor="#399de5"] ;
529 -> 531 ;
532 [label=<gini = 0.0<br/>samples = 3<br/>value = [0, 3, 0, 0]<br/>class = B>, fillcolor="#47e539"] ;
524 -> 532 ;
533 [label=<gini = 0.0<br/>samples = 3<br/>value = [0, 0, 0, 3]<br/>class = D>, fillcolor="#d739e5"] ;
523 -> 533 ;
534 [label=<Age &le; 6.5<br/>gini = 0.611<br/>samples = 6<br/>value = [3, 2, 1, 0]<br/>class = A>, fillcolor="#f8e0ce"] ;
522 -> 534 ;
535 [label=<gini = 0.0<br/>samples = 2<br/>value = [0, 2, 0, 0]<br/>class = B>, fillcolor="#47e539"] ;
534 -> 535 ;
536 [label=<Profession &le; 7.0<br/>gini = 0.375<br/>samples = 4<br/>value = [3, 0, 1, 0]<br/>class = A>, fillcolor="#eeab7b"] ;
534 -> 536 ;
537 [label=<gini = 0.0<br/>samples = 1<br/>value = [0, 0, 1, 0]<br/>class = C>, fillcolor="#399de5"] ;
536 -> 537 ;
538 [label=<gini = 0.0<br/>samples = 3<br/>value = [3, 0, 0, 0]<br/>class = A>, fillcolor="#e58139"] ;
536 -> 538 ;
539 [label=<Spending_Score &le; 0.5<br/>gini = 0.545<br/>samples = 11<br/>value = [1, 1, 2, 7]<br/>class = D>, fillcolor="#e991f1"] ;
521 -> 539 ;
540 [label=<gini = 0.0<br/>samples = 2<br/>value = [0, 0, 2, 0]<br/>class = C>, fillcolor="#399de5"] ;
539 -> 540 ;
541 [label=<ID &le; 1421.0<br/>gini = 0.37<br/>samples = 9<br/>value = [1, 1, 0, 7]<br/>class = D>, fillcolor="#e16aec"] ;
539 -> 541 ;
542 [label=<Age &le; 9.5<br/>gini = 0.219<br/>samples = 8<br/>value = [1, 0, 0, 7]<br/>class = D>, fillcolor="#dd55e9"] ;
541 -> 542 ;
543 [label=<gini = 0.0<br/>samples = 5<br/>value = [0, 0, 0, 5]<br/>class = D>, fillcolor="#d739e5"] ;
542 -> 543 ;
544 [label=<Profession &le; 7.0<br/>gini = 0.444<br/>samples = 3<br/>value = [1, 0, 0, 2]<br/>class = D>, fillcolor="#eb9cf2"] ;
542 -> 544 ;
545 [label=<gini = 0.0<br/>samples = 1<br/>value = [1, 0, 0, 0]<br/>class = A>, fillcolor="#e58139"] ;
544 -> 545 ;
546 [label=<gini = 0.0<br/>samples = 2<br/>value = [0, 0, 0, 2]<br/>class = D>, fillcolor="#d739e5"] ;
544 -> 546 ;
547 [label=<gini = 0.0<br/>samples = 1<br/>value = [0, 1, 0, 0]<br/>class = B>, fillcolor="#47e539"] ;
541 -> 547 ;
548 [label=<gini = 0.0<br/>samples = 2<br/>value = [0, 2, 0, 0]<br/>class = B>, fillcolor="#47e539"] ;
520 -> 548 ;
549 [label=<gini = 0.0<br/>samples = 4<br/>value = [0, 0, 0, 4]<br/>class = D>, fillcolor="#d739e5"] ;
519 -> 549 ;
550 [label=<Family_Size &le; 0.5<br/>gini = 0.375<br/>samples = 4<br/>value = [3, 1, 0, 0]<br/>class = A>, fillcolor="#eeab7b"] ;
518 -> 550 ;
551 [label=<gini = 0.0<br/>samples = 1<br/>value = [0, 1, 0, 0]<br/>class = B>, fillcolor="#47e539"] ;
550 -> 551 ;
552 [label=<gini = 0.0<br/>samples = 3<br/>value = [3, 0, 0, 0]<br/>class = A>, fillcolor="#e58139"] ;
550 -> 552 ;
553 [label=<Work_Experience &le; 3.0<br/>gini = 0.725<br/>samples = 37<br/>value = [14, 9, 6, 8]<br/>class = A>, fillcolor="#fae8dc"] ;
197 -> 553 ;
554 [label=<Age &le; 10.0<br/>gini = 0.648<br/>samples = 16<br/>value = [5, 7, 4, 0]<br/>class = B>, fillcolor="#defadb"] ;
553 -> 554 ;
555 [label=<Var_1 &le; 4.0<br/>gini = 0.49<br/>samples = 7<br/>value = [3, 4, 0, 0]<br/>class = B>, fillcolor="#d1f8ce"] ;
554 -> 555 ;
556 [label=<Gender &le; 0.5<br/>gini = 0.48<br/>samples = 5<br/>value = [3, 2, 0, 0]<br/>class = A>, fillcolor="#f6d5bd"] ;
555 -> 556 ;
557 [label=<gini = 0.0<br/>samples = 2<br/>value = [2, 0, 0, 0]<br/>class = A>, fillcolor="#e58139"] ;
556 -> 557 ;
558 [label=<Work_Experience &le; 1.0<br/>gini = 0.444<br/>samples = 3<br/>value = [1, 2, 0, 0]<br/>class = B>, fillcolor="#a3f29c"] ;
556 -> 558 ;
559 [label=<Family_Size &le; 7.5<br/>gini = 0.5<br/>samples = 2<br/>value = [1, 1, 0, 0]<br/>class = A>, fillcolor="#ffffff"] ;
558 -> 559 ;
560 [label=<gini = 0.0<br/>samples = 1<br/>value = [1, 0, 0, 0]<br/>class = A>, fillcolor="#e58139"] ;
559 -> 560 ;
561 [label=<gini = 0.0<br/>samples = 1<br/>value = [0, 1, 0, 0]<br/>class = B>, fillcolor="#47e539"] ;
559 -> 561 ;
562 [label=<gini = 0.0<br/>samples = 1<br/>value = [0, 1, 0, 0]<br/>class = B>, fillcolor="#47e539"] ;
558 -> 562 ;
563 [label=<gini = 0.0<br/>samples = 2<br/>value = [0, 2, 0, 0]<br/>class = B>, fillcolor="#47e539"] ;
555 -> 563 ;
564 [label=<ID &le; 1682.5<br/>gini = 0.642<br/>samples = 9<br/>value = [2, 3, 4, 0]<br/>class = C>, fillcolor="#deeffb"] ;
554 -> 564 ;
565 [label=<ID &le; 839.5<br/>gini = 0.5<br/>samples = 6<br/>value = [1, 1, 4, 0]<br/>class = C>, fillcolor="#88c4ef"] ;
564 -> 565 ;
566 [label=<gini = 0.0<br/>samples = 1<br/>value = [0, 1, 0, 0]<br/>class = B>, fillcolor="#47e539"] ;
565 -> 566 ;
567 [label=<ID &le; 1576.5<br/>gini = 0.32<br/>samples = 5<br/>value = [1, 0, 4, 0]<br/>class = C>, fillcolor="#6ab6ec"] ;
565 -> 567 ;
568 [label=<gini = 0.0<br/>samples = 3<br/>value = [0, 0, 3, 0]<br/>class = C>, fillcolor="#399de5"] ;
567 -> 568 ;
569 [label=<Var_1 &le; 3.5<br/>gini = 0.5<br/>samples = 2<br/>value = [1, 0, 1, 0]<br/>class = A>, fillcolor="#ffffff"] ;
567 -> 569 ;
570 [label=<gini = 0.0<br/>samples = 1<br/>value = [0, 0, 1, 0]<br/>class = C>, fillcolor="#399de5"] ;
569 -> 570 ;
571 [label=<gini = 0.0<br/>samples = 1<br/>value = [1, 0, 0, 0]<br/>class = A>, fillcolor="#e58139"] ;
569 -> 571 ;
572 [label=<Var_1 &le; 6.0<br/>gini = 0.444<br/>samples = 3<br/>value = [1, 2, 0, 0]<br/>class = B>, fillcolor="#a3f29c"] ;
564 -> 572 ;
573 [label=<gini = 0.0<br/>samples = 2<br/>value = [0, 2, 0, 0]<br/>class = B>, fillcolor="#47e539"] ;
572 -> 573 ;
574 [label=<gini = 0.0<br/>samples = 1<br/>value = [1, 0, 0, 0]<br/>class = A>, fillcolor="#e58139"] ;
572 -> 574 ;
575 [label=<Profession &le; 1.5<br/>gini = 0.653<br/>samples = 21<br/>value = [9, 2, 2, 8]<br/>class = A>, fillcolor="#fdf5f0"] ;
553 -> 575 ;
576 [label=<Work_Experience &le; 8.5<br/>gini = 0.64<br/>samples = 5<br/>value = [2, 1, 2, 0]<br/>class = A>, fillcolor="#ffffff"] ;
575 -> 576 ;
577 [label=<gini = 0.0<br/>samples = 2<br/>value = [0, 0, 2, 0]<br/>class = C>, fillcolor="#399de5"] ;
576 -> 577 ;
578 [label=<Profession &le; 0.5<br/>gini = 0.444<br/>samples = 3<br/>value = [2, 1, 0, 0]<br/>class = A>, fillcolor="#f2c09c"] ;
576 -> 578 ;
579 [label=<gini = 0.0<br/>samples = 2<br/>value = [2, 0, 0, 0]<br/>class = A>, fillcolor="#e58139"] ;
578 -> 579 ;
580 [label=<gini = 0.0<br/>samples = 1<br/>value = [0, 1, 0, 0]<br/>class = B>, fillcolor="#47e539"] ;
578 -> 580 ;
581 [label=<Graduated &le; 0.5<br/>gini = 0.555<br/>samples = 16<br/>value = [7, 1, 0, 8]<br/>class = D>, fillcolor="#fbe9fc"] ;
575 -> 581 ;
582 [label=<Profession &le; 4.0<br/>gini = 0.408<br/>samples = 7<br/>value = [5, 0, 0, 2]<br/>class = A>, fillcolor="#efb388"] ;
581 -> 582 ;
583 [label=<Age &le; 10.5<br/>gini = 0.444<br/>samples = 3<br/>value = [1, 0, 0, 2]<br/>class = D>, fillcolor="#eb9cf2"] ;
582 -> 583 ;
584 [label=<gini = 0.0<br/>samples = 1<br/>value = [1, 0, 0, 0]<br/>class = A>, fillcolor="#e58139"] ;
583 -> 584 ;
585 [label=<gini = 0.0<br/>samples = 2<br/>value = [0, 0, 0, 2]<br/>class = D>, fillcolor="#d739e5"] ;
583 -> 585 ;
586 [label=<gini = 0.0<br/>samples = 4<br/>value = [4, 0, 0, 0]<br/>class = A>, fillcolor="#e58139"] ;
582 -> 586 ;
587 [label=<Work_Experience &le; 7.5<br/>gini = 0.494<br/>samples = 9<br/>value = [2, 1, 0, 6]<br/>class = D>, fillcolor="#e88ef0"] ;
581 -> 587 ;
588 [label=<Work_Experience &le; 4.5<br/>gini = 0.444<br/>samples = 3<br/>value = [2, 0, 0, 1]<br/>class = A>, fillcolor="#f2c09c"] ;
587 -> 588 ;
589 [label=<gini = 0.0<br/>samples = 1<br/>value = [0, 0, 0, 1]<br/>class = D>, fillcolor="#d739e5"] ;
588 -> 589 ;
590 [label=<gini = 0.0<br/>samples = 2<br/>value = [2, 0, 0, 0]<br/>class = A>, fillcolor="#e58139"] ;
588 -> 590 ;
591 [label=<Age &le; 13.5<br/>gini = 0.278<br/>samples = 6<br/>value = [0, 1, 0, 5]<br/>class = D>, fillcolor="#df61ea"] ;
587 -> 591 ;
592 [label=<gini = 0.0<br/>samples = 5<br/>value = [0, 0, 0, 5]<br/>class = D>, fillcolor="#d739e5"] ;
591 -> 592 ;
593 [label=<gini = 0.0<br/>samples = 1<br/>value = [0, 1, 0, 0]<br/>class = B>, fillcolor="#47e539"] ;
591 -> 593 ;
594 [label=<Work_Experience &le; 7.5<br/>gini = 0.346<br/>samples = 9<br/>value = [7, 0, 0, 2]<br/>class = A>, fillcolor="#eca572"] ;
196 -> 594 ;
595 [label=<gini = 0.0<br/>samples = 6<br/>value = [6, 0, 0, 0]<br/>class = A>, fillcolor="#e58139"] ;
594 -> 595 ;
596 [label=<Work_Experience &le; 11.5<br/>gini = 0.444<br/>samples = 3<br/>value = [1, 0, 0, 2]<br/>class = D>, fillcolor="#eb9cf2"] ;
594 -> 596 ;
597 [label=<gini = 0.0<br/>samples = 2<br/>value = [0, 0, 0, 2]<br/>class = D>, fillcolor="#d739e5"] ;
596 -> 597 ;
598 [label=<gini = 0.0<br/>samples = 1<br/>value = [1, 0, 0, 0]<br/>class = A>, fillcolor="#e58139"] ;
596 -> 598 ;
599 [label=<Var_1 &le; 2.5<br/>gini = 0.611<br/>samples = 87<br/>value = [24, 12, 4, 47]<br/>class = D>, fillcolor="#f0b7f6"] ;
195 -> 599 ;
600 [label=<Work_Experience &le; 0.5<br/>gini = 0.72<br/>samples = 15<br/>value = [3, 5, 2, 5]<br/>class = B>, fillcolor="#ffffff"] ;
599 -> 600 ;
601 [label=<gini = 0.0<br/>samples = 4<br/>value = [0, 4, 0, 0]<br/>class = B>, fillcolor="#47e539"] ;
600 -> 601 ;
602 [label=<Profession &le; 5.5<br/>gini = 0.678<br/>samples = 11<br/>value = [3, 1, 2, 5]<br/>class = D>, fillcolor="#f5cef8"] ;
600 -> 602 ;
603 [label=<Profession &le; 4.0<br/>gini = 0.719<br/>samples = 8<br/>value = [3, 1, 2, 2]<br/>class = A>, fillcolor="#fbeade"] ;
602 -> 603 ;
604 [label=<Family_Size &le; 2.5<br/>gini = 0.625<br/>samples = 4<br/>value = [0, 1, 2, 1]<br/>class = C>, fillcolor="#bddef6"] ;
603 -> 604 ;
605 [label=<gini = 0.0<br/>samples = 2<br/>value = [0, 0, 2, 0]<br/>class = C>, fillcolor="#399de5"] ;
604 -> 605 ;
606 [label=<Family_Size &le; 4.0<br/>gini = 0.5<br/>samples = 2<br/>value = [0, 1, 0, 1]<br/>class = B>, fillcolor="#ffffff"] ;
604 -> 606 ;
607 [label=<gini = 0.0<br/>samples = 1<br/>value = [0, 1, 0, 0]<br/>class = B>, fillcolor="#47e539"] ;
606 -> 607 ;
608 [label=<gini = 0.0<br/>samples = 1<br/>value = [0, 0, 0, 1]<br/>class = D>, fillcolor="#d739e5"] ;
606 -> 608 ;
609 [label=<Family_Size &le; 1.0<br/>gini = 0.375<br/>samples = 4<br/>value = [3, 0, 0, 1]<br/>class = A>, fillcolor="#eeab7b"] ;
603 -> 609 ;
610 [label=<gini = 0.0<br/>samples = 1<br/>value = [0, 0, 0, 1]<br/>class = D>, fillcolor="#d739e5"] ;
609 -> 610 ;
611 [label=<gini = 0.0<br/>samples = 3<br/>value = [3, 0, 0, 0]<br/>class = A>, fillcolor="#e58139"] ;
609 -> 611 ;
612 [label=<gini = 0.0<br/>samples = 3<br/>value = [0, 0, 0, 3]<br/>class = D>, fillcolor="#d739e5"] ;
602 -> 612 ;
613 [label=<ID &le; 2597.5<br/>gini = 0.564<br/>samples = 72<br/>value = [21, 7, 2, 42]<br/>class = D>, fillcolor="#efadf4"] ;
599 -> 613 ;
614 [label=<Age &le; 11.5<br/>gini = 0.549<br/>samples = 67<br/>value = [17, 7, 2, 41]<br/>class = D>, fillcolor="#eca0f3"] ;
613 -> 614 ;
615 [label=<Profession &le; 0.5<br/>gini = 0.447<br/>samples = 46<br/>value = [8, 4, 1, 33]<br/>class = D>, fillcolor="#e57dee"] ;
614 -> 615 ;
616 [label=<gini = 0.0<br/>samples = 9<br/>value = [0, 0, 0, 9]<br/>class = D>, fillcolor="#d739e5"] ;
615 -> 616 ;
617 [label=<Work_Experience &le; 13.0<br/>gini = 0.52<br/>samples = 37<br/>value = [8, 4, 1, 24]<br/>class = D>, fillcolor="#e992f1"] ;
615 -> 617 ;
618 [label=<Var_1 &le; 5.5<br/>gini = 0.492<br/>samples = 33<br/>value = [8, 2, 1, 22]<br/>class = D>, fillcolor="#e990f0"] ;
617 -> 618 ;
619 [label=<ID &le; 2515.0<br/>gini = 0.475<br/>samples = 32<br/>value = [7, 2, 1, 22]<br/>class = D>, fillcolor="#e788ef"] ;
618 -> 619 ;
620 [label=<ID &le; 2470.5<br/>gini = 0.518<br/>samples = 28<br/>value = [7, 2, 1, 18]<br/>class = D>, fillcolor="#ea97f1"] ;
619 -> 620 ;
621 [label=<Profession &le; 2.5<br/>gini = 0.476<br/>samples = 26<br/>value = [5, 2, 1, 18]<br/>class = D>, fillcolor="#e684ef"] ;
620 -> 621 ;
622 [label=<Family_Size &le; 2.5<br/>gini = 0.66<br/>samples = 10<br/>value = [2, 2, 1, 5]<br/>class = D>, fillcolor="#f0b5f5"] ;
621 -> 622 ;
623 [label=<Profession &le; 1.5<br/>gini = 0.449<br/>samples = 7<br/>value = [1, 1, 0, 5]<br/>class = D>, fillcolor="#e47bee"] ;
622 -> 623 ;
624 [label=<gini = 0.0<br/>samples = 4<br/>value = [0, 0, 0, 4]<br/>class = D>, fillcolor="#d739e5"] ;
623 -> 624 ;
625 [label=<Age &le; 9.0<br/>gini = 0.667<br/>samples = 3<br/>value = [1, 1, 0, 1]<br/>class = A>, fillcolor="#ffffff"] ;
623 -> 625 ;
626 [label=<gini = 0.0<br/>samples = 1<br/>value = [1, 0, 0, 0]<br/>class = A>, fillcolor="#e58139"] ;
625 -> 626 ;
627 [label=<ID &le; 2376.0<br/>gini = 0.5<br/>samples = 2<br/>value = [0, 1, 0, 1]<br/>class = B>, fillcolor="#ffffff"] ;
625 -> 627 ;
628 [label=<gini = 0.0<br/>samples = 1<br/>value = [0, 1, 0, 0]<br/>class = B>, fillcolor="#47e539"] ;
627 -> 628 ;
629 [label=<gini = 0.0<br/>samples = 1<br/>value = [0, 0, 0, 1]<br/>class = D>, fillcolor="#d739e5"] ;
627 -> 629 ;
630 [label=<Gender &le; 0.5<br/>gini = 0.667<br/>samples = 3<br/>value = [1, 1, 1, 0]<br/>class = A>, fillcolor="#ffffff"] ;
622 -> 630 ;
631 [label=<gini = 0.0<br/>samples = 1<br/>value = [0, 0, 1, 0]<br/>class = C>, fillcolor="#399de5"] ;
630 -> 631 ;
632 [label=<Age &le; 7.0<br/>gini = 0.5<br/>samples = 2<br/>value = [1, 1, 0, 0]<br/>class = A>, fillcolor="#ffffff"] ;
630 -> 632 ;
633 [label=<gini = 0.0<br/>samples = 1<br/>value = [1, 0, 0, 0]<br/>class = A>, fillcolor="#e58139"] ;
632 -> 633 ;
634 [label=<gini = 0.0<br/>samples = 1<br/>value = [0, 1, 0, 0]<br/>class = B>, fillcolor="#47e539"] ;
632 -> 634 ;
635 [label=<Age &le; 8.5<br/>gini = 0.305<br/>samples = 16<br/>value = [3, 0, 0, 13]<br/>class = D>, fillcolor="#e067eb"] ;
621 -> 635 ;
636 [label=<gini = 0.0<br/>samples = 6<br/>value = [0, 0, 0, 6]<br/>class = D>, fillcolor="#d739e5"] ;
635 -> 636 ;
637 [label=<Gender &le; 0.5<br/>gini = 0.42<br/>samples = 10<br/>value = [3, 0, 0, 7]<br/>class = D>, fillcolor="#e88ef0"] ;
635 -> 637 ;
638 [label=<Age &le; 9.5<br/>gini = 0.346<br/>samples = 9<br/>value = [2, 0, 0, 7]<br/>class = D>, fillcolor="#e272ec"] ;
637 -> 638 ;
639 [label=<gini = 0.0<br/>samples = 1<br/>value = [1, 0, 0, 0]<br/>class = A>, fillcolor="#e58139"] ;
638 -> 639 ;
640 [label=<Family_Size &le; 2.5<br/>gini = 0.219<br/>samples = 8<br/>value = [1, 0, 0, 7]<br/>class = D>, fillcolor="#dd55e9"] ;
638 -> 640 ;
641 [label=<gini = 0.0<br/>samples = 6<br/>value = [0, 0, 0, 6]<br/>class = D>, fillcolor="#d739e5"] ;
640 -> 641 ;
642 [label=<Family_Size &le; 4.0<br/>gini = 0.5<br/>samples = 2<br/>value = [1, 0, 0, 1]<br/>class = A>, fillcolor="#ffffff"] ;
640 -> 642 ;
643 [label=<gini = 0.0<br/>samples = 1<br/>value = [1, 0, 0, 0]<br/>class = A>, fillcolor="#e58139"] ;
642 -> 643 ;
644 [label=<gini = 0.0<br/>samples = 1<br/>value = [0, 0, 0, 1]<br/>class = D>, fillcolor="#d739e5"] ;
642 -> 644 ;
645 [label=<gini = 0.0<br/>samples = 1<br/>value = [1, 0, 0, 0]<br/>class = A>, fillcolor="#e58139"] ;
637 -> 645 ;
646 [label=<gini = 0.0<br/>samples = 2<br/>value = [2, 0, 0, 0]<br/>class = A>, fillcolor="#e58139"] ;
620 -> 646 ;
647 [label=<gini = 0.0<br/>samples = 4<br/>value = [0, 0, 0, 4]<br/>class = D>, fillcolor="#d739e5"] ;
619 -> 647 ;
648 [label=<gini = 0.0<br/>samples = 1<br/>value = [1, 0, 0, 0]<br/>class = A>, fillcolor="#e58139"] ;
618 -> 648 ;
649 [label=<Family_Size &le; 3.0<br/>gini = 0.5<br/>samples = 4<br/>value = [0, 2, 0, 2]<br/>class = B>, fillcolor="#ffffff"] ;
617 -> 649 ;
650 [label=<gini = 0.0<br/>samples = 2<br/>value = [0, 2, 0, 0]<br/>class = B>, fillcolor="#47e539"] ;
649 -> 650 ;
651 [label=<gini = 0.0<br/>samples = 2<br/>value = [0, 0, 0, 2]<br/>class = D>, fillcolor="#d739e5"] ;
649 -> 651 ;
652 [label=<ID &le; 2196.5<br/>gini = 0.649<br/>samples = 21<br/>value = [9, 3, 1, 8]<br/>class = A>, fillcolor="#fdf5f0"] ;
614 -> 652 ;
653 [label=<gini = 0.0<br/>samples = 3<br/>value = [0, 0, 0, 3]<br/>class = D>, fillcolor="#d739e5"] ;
652 -> 653 ;
654 [label=<Work_Experience &le; 8.5<br/>gini = 0.642<br/>samples = 18<br/>value = [9, 3, 1, 5]<br/>class = A>, fillcolor="#f7d8c2"] ;
652 -> 654 ;
655 [label=<Family_Size &le; 0.5<br/>gini = 0.684<br/>samples = 15<br/>value = [6, 3, 1, 5]<br/>class = A>, fillcolor="#fcf2eb"] ;
654 -> 655 ;
656 [label=<ID &le; 2549.5<br/>gini = 0.444<br/>samples = 3<br/>value = [1, 2, 0, 0]<br/>class = B>, fillcolor="#a3f29c"] ;
655 -> 656 ;
657 [label=<gini = 0.0<br/>samples = 2<br/>value = [0, 2, 0, 0]<br/>class = B>, fillcolor="#47e539"] ;
656 -> 657 ;
658 [label=<gini = 0.0<br/>samples = 1<br/>value = [1, 0, 0, 0]<br/>class = A>, fillcolor="#e58139"] ;
656 -> 658 ;
659 [label=<ID &le; 2382.0<br/>gini = 0.639<br/>samples = 12<br/>value = [5, 1, 1, 5]<br/>class = A>, fillcolor="#ffffff"] ;
655 -> 659 ;
660 [label=<ID &le; 2347.5<br/>gini = 0.617<br/>samples = 9<br/>value = [5, 1, 1, 2]<br/>class = A>, fillcolor="#f4c9aa"] ;
659 -> 660 ;
661 [label=<Var_1 &le; 6.0<br/>gini = 0.531<br/>samples = 8<br/>value = [5, 1, 0, 2]<br/>class = A>, fillcolor="#f2c09c"] ;
660 -> 661 ;
662 [label=<Family_Size &le; 3.0<br/>gini = 0.449<br/>samples = 7<br/>value = [5, 1, 0, 1]<br/>class = A>, fillcolor="#eeab7b"] ;
661 -> 662 ;
663 [label=<gini = 0.0<br/>samples = 3<br/>value = [3, 0, 0, 0]<br/>class = A>, fillcolor="#e58139"] ;
662 -> 663 ;
664 [label=<Gender &le; 0.5<br/>gini = 0.625<br/>samples = 4<br/>value = [2, 1, 0, 1]<br/>class = A>, fillcolor="#f6d5bd"] ;
662 -> 664 ;
665 [label=<ID &le; 2255.5<br/>gini = 0.444<br/>samples = 3<br/>value = [2, 1, 0, 0]<br/>class = A>, fillcolor="#f2c09c"] ;
664 -> 665 ;
666 [label=<gini = 0.0<br/>samples = 1<br/>value = [0, 1, 0, 0]<br/>class = B>, fillcolor="#47e539"] ;
665 -> 666 ;
667 [label=<gini = 0.0<br/>samples = 2<br/>value = [2, 0, 0, 0]<br/>class = A>, fillcolor="#e58139"] ;
665 -> 667 ;
668 [label=<gini = 0.0<br/>samples = 1<br/>value = [0, 0, 0, 1]<br/>class = D>, fillcolor="#d739e5"] ;
664 -> 668 ;
669 [label=<gini = 0.0<br/>samples = 1<br/>value = [0, 0, 0, 1]<br/>class = D>, fillcolor="#d739e5"] ;
661 -> 669 ;
670 [label=<gini = 0.0<br/>samples = 1<br/>value = [0, 0, 1, 0]<br/>class = C>, fillcolor="#399de5"] ;
660 -> 670 ;
671 [label=<gini = 0.0<br/>samples = 3<br/>value = [0, 0, 0, 3]<br/>class = D>, fillcolor="#d739e5"] ;
659 -> 671 ;
672 [label=<gini = 0.0<br/>samples = 3<br/>value = [3, 0, 0, 0]<br/>class = A>, fillcolor="#e58139"] ;
654 -> 672 ;
673 [label=<Family_Size &le; 1.5<br/>gini = 0.32<br/>samples = 5<br/>value = [4, 0, 0, 1]<br/>class = A>, fillcolor="#eca06a"] ;
613 -> 673 ;
674 [label=<gini = 0.0<br/>samples = 1<br/>value = [0, 0, 0, 1]<br/>class = D>, fillcolor="#d739e5"] ;
673 -> 674 ;
675 [label=<gini = 0.0<br/>samples = 4<br/>value = [4, 0, 0, 0]<br/>class = A>, fillcolor="#e58139"] ;
673 -> 675 ;
676 [label=<Age &le; 25.5<br/>gini = 0.743<br/>samples = 1394<br/>value = [443, 354, 303, 294]<br/>class = A>, fillcolor="#fdf4ee"] ;
0 -> 676 [labeldistance=2.5, labelangle=-45, headlabel="False"] ;
677 [label=<ID &le; 1810.5<br/>gini = 0.728<br/>samples = 624<br/>value = [235, 142, 115, 132]<br/>class = A>, fillcolor="#fae7d9"] ;
676 -> 677 ;
678 [label=<ID &le; 1747.5<br/>gini = 0.734<br/>samples = 429<br/>value = [150, 111, 81, 87]<br/>class = A>, fillcolor="#fcf0e7"] ;
677 -> 678 ;
679 [label=<Profession &le; 3.5<br/>gini = 0.734<br/>samples = 422<br/>value = [149, 106, 81, 86]<br/>class = A>, fillcolor="#fbeee4"] ;
678 -> 679 ;
680 [label=<Age &le; 23.5<br/>gini = 0.733<br/>samples = 336<br/>value = [118.0, 89.0, 68.0, 61.0]<br/>class = A>, fillcolor="#fcf0e8"] ;
679 -> 680 ;
681 [label=<ID &le; 429.0<br/>gini = 0.723<br/>samples = 284<br/>value = [106, 78, 52, 48]<br/>class = A>, fillcolor="#fbeee4"] ;
680 -> 681 ;
682 [label=<Work_Experience &le; 4.5<br/>gini = 0.662<br/>samples = 71<br/>value = [33.0, 22.0, 7.0, 9.0]<br/>class = A>, fillcolor="#f9e3d3"] ;
681 -> 682 ;
683 [label=<Var_1 &le; 2.5<br/>gini = 0.643<br/>samples = 42<br/>value = [14, 20, 3, 5]<br/>class = B>, fillcolor="#d8f9d5"] ;
682 -> 683 ;
684 [label=<ID &le; 61.5<br/>gini = 0.245<br/>samples = 7<br/>value = [1, 6, 0, 0]<br/>class = B>, fillcolor="#66e95a"] ;
683 -> 684 ;
685 [label=<gini = 0.0<br/>samples = 1<br/>value = [1, 0, 0, 0]<br/>class = A>, fillcolor="#e58139"] ;
684 -> 685 ;
686 [label=<gini = 0.0<br/>samples = 6<br/>value = [0, 6, 0, 0]<br/>class = B>, fillcolor="#47e539"] ;
684 -> 686 ;
687 [label=<Work_Experience &le; 2.5<br/>gini = 0.674<br/>samples = 35<br/>value = [13, 14, 3, 5]<br/>class = B>, fillcolor="#f7fef6"] ;
683 -> 687 ;
688 [label=<Age &le; 22.5<br/>gini = 0.678<br/>samples = 26<br/>value = [7, 12, 3, 4]<br/>class = B>, fillcolor="#cff8cb"] ;
687 -> 688 ;
689 [label=<Var_1 &le; 5.5<br/>gini = 0.663<br/>samples = 24<br/>value = [5, 12, 3, 4]<br/>class = B>, fillcolor="#bbf5b6"] ;
688 -> 689 ;
690 [label=<Family_Size &le; 3.5<br/>gini = 0.632<br/>samples = 22<br/>value = [3, 12, 3, 4]<br/>class = B>, fillcolor="#adf3a7"] ;
689 -> 690 ;
691 [label=<Age &le; 15.5<br/>gini = 0.608<br/>samples = 21<br/>value = [3, 12, 2, 4]<br/>class = B>, fillcolor="#a8f3a2"] ;
690 -> 691 ;
692 [label=<Work_Experience &le; 0.5<br/>gini = 0.444<br/>samples = 3<br/>value = [0, 1, 0, 2]<br/>class = D>, fillcolor="#eb9cf2"] ;
691 -> 692 ;
693 [label=<gini = 0.0<br/>samples = 2<br/>value = [0, 0, 0, 2]<br/>class = D>, fillcolor="#d739e5"] ;
692 -> 693 ;
694 [label=<gini = 0.0<br/>samples = 1<br/>value = [0, 1, 0, 0]<br/>class = B>, fillcolor="#47e539"] ;
692 -> 694 ;
695 [label=<Var_1 &le; 4.0<br/>gini = 0.574<br/>samples = 18<br/>value = [3, 11, 2, 2]<br/>class = B>, fillcolor="#9df195"] ;
691 -> 695 ;
696 [label=<gini = 0.0<br/>samples = 1<br/>value = [0, 0, 0, 1]<br/>class = D>, fillcolor="#d739e5"] ;
695 -> 696 ;
697 [label=<ID &le; 359.0<br/>gini = 0.533<br/>samples = 17<br/>value = [3, 11, 2, 1]<br/>class = B>, fillcolor="#96f08e"] ;
695 -> 697 ;
698 [label=<Ever_Married &le; 0.5<br/>gini = 0.417<br/>samples = 12<br/>value = [1, 9, 1, 1]<br/>class = B>, fillcolor="#79ec6f"] ;
697 -> 698 ;
699 [label=<ID &le; 70.0<br/>gini = 0.219<br/>samples = 8<br/>value = [0, 7, 1, 0]<br/>class = B>, fillcolor="#61e955"] ;
698 -> 699 ;
700 [label=<gini = 0.0<br/>samples = 1<br/>value = [0, 0, 1, 0]<br/>class = C>, fillcolor="#399de5"] ;
699 -> 700 ;
701 [label=<gini = 0.0<br/>samples = 7<br/>value = [0, 7, 0, 0]<br/>class = B>, fillcolor="#47e539"] ;
699 -> 701 ;
702 [label=<ID &le; 193.5<br/>gini = 0.625<br/>samples = 4<br/>value = [1, 2, 0, 1]<br/>class = B>, fillcolor="#c2f6bd"] ;
698 -> 702 ;
703 [label=<Gender &le; 0.5<br/>gini = 0.444<br/>samples = 3<br/>value = [0, 2, 0, 1]<br/>class = B>, fillcolor="#a3f29c"] ;
702 -> 703 ;
704 [label=<gini = 0.0<br/>samples = 2<br/>value = [0, 2, 0, 0]<br/>class = B>, fillcolor="#47e539"] ;
703 -> 704 ;
705 [label=<gini = 0.0<br/>samples = 1<br/>value = [0, 0, 0, 1]<br/>class = D>, fillcolor="#d739e5"] ;
703 -> 705 ;
706 [label=<gini = 0.0<br/>samples = 1<br/>value = [1, 0, 0, 0]<br/>class = A>, fillcolor="#e58139"] ;
702 -> 706 ;
707 [label=<Age &le; 21.5<br/>gini = 0.64<br/>samples = 5<br/>value = [2, 2, 1, 0]<br/>class = A>, fillcolor="#ffffff"] ;
697 -> 707 ;
708 [label=<Gender &le; 0.5<br/>gini = 0.5<br/>samples = 4<br/>value = [2, 2, 0, 0]<br/>class = A>, fillcolor="#ffffff"] ;
707 -> 708 ;
709 [label=<Age &le; 18.0<br/>gini = 0.444<br/>samples = 3<br/>value = [2, 1, 0, 0]<br/>class = A>, fillcolor="#f2c09c"] ;
708 -> 709 ;
710 [label=<gini = 0.0<br/>samples = 1<br/>value = [0, 1, 0, 0]<br/>class = B>, fillcolor="#47e539"] ;
709 -> 710 ;
711 [label=<gini = 0.0<br/>samples = 2<br/>value = [2, 0, 0, 0]<br/>class = A>, fillcolor="#e58139"] ;
709 -> 711 ;
712 [label=<gini = 0.0<br/>samples = 1<br/>value = [0, 1, 0, 0]<br/>class = B>, fillcolor="#47e539"] ;
708 -> 712 ;
713 [label=<gini = 0.0<br/>samples = 1<br/>value = [0, 0, 1, 0]<br/>class = C>, fillcolor="#399de5"] ;
707 -> 713 ;
714 [label=<gini = 0.0<br/>samples = 1<br/>value = [0, 0, 1, 0]<br/>class = C>, fillcolor="#399de5"] ;
690 -> 714 ;
715 [label=<gini = 0.0<br/>samples = 2<br/>value = [2, 0, 0, 0]<br/>class = A>, fillcolor="#e58139"] ;
689 -> 715 ;
716 [label=<gini = 0.0<br/>samples = 2<br/>value = [2, 0, 0, 0]<br/>class = A>, fillcolor="#e58139"] ;
688 -> 716 ;
717 [label=<Profession &le; 0.5<br/>gini = 0.494<br/>samples = 9<br/>value = [6, 2, 0, 1]<br/>class = A>, fillcolor="#f0b78e"] ;
687 -> 717 ;
718 [label=<Age &le; 18.0<br/>gini = 0.245<br/>samples = 7<br/>value = [6, 0, 0, 1]<br/>class = A>, fillcolor="#e9965a"] ;
717 -> 718 ;
719 [label=<Var_1 &le; 4.0<br/>gini = 0.444<br/>samples = 3<br/>value = [2, 0, 0, 1]<br/>class = A>, fillcolor="#f2c09c"] ;
718 -> 719 ;
720 [label=<gini = 0.0<br/>samples = 2<br/>value = [2, 0, 0, 0]<br/>class = A>, fillcolor="#e58139"] ;
719 -> 720 ;
721 [label=<gini = 0.0<br/>samples = 1<br/>value = [0, 0, 0, 1]<br/>class = D>, fillcolor="#d739e5"] ;
719 -> 721 ;
722 [label=<gini = 0.0<br/>samples = 4<br/>value = [4, 0, 0, 0]<br/>class = A>, fillcolor="#e58139"] ;
718 -> 722 ;
723 [label=<gini = 0.0<br/>samples = 2<br/>value = [0, 2, 0, 0]<br/>class = B>, fillcolor="#47e539"] ;
717 -> 723 ;
724 [label=<Age &le; 18.5<br/>gini = 0.528<br/>samples = 29<br/>value = [19, 2, 4, 4]<br/>class = A>, fillcolor="#efb388"] ;
682 -> 724 ;
725 [label=<Profession &le; 1.5<br/>gini = 0.245<br/>samples = 14<br/>value = [12, 2, 0, 0]<br/>class = A>, fillcolor="#e9965a"] ;
724 -> 725 ;
726 [label=<gini = 0.0<br/>samples = 9<br/>value = [9, 0, 0, 0]<br/>class = A>, fillcolor="#e58139"] ;
725 -> 726 ;
727 [label=<Family_Size &le; 0.5<br/>gini = 0.48<br/>samples = 5<br/>value = [3, 2, 0, 0]<br/>class = A>, fillcolor="#f6d5bd"] ;
725 -> 727 ;
728 [label=<gini = 0.0<br/>samples = 2<br/>value = [0, 2, 0, 0]<br/>class = B>, fillcolor="#47e539"] ;
727 -> 728 ;
729 [label=<gini = 0.0<br/>samples = 3<br/>value = [3, 0, 0, 0]<br/>class = A>, fillcolor="#e58139"] ;
727 -> 729 ;
730 [label=<Gender &le; 0.5<br/>gini = 0.64<br/>samples = 15<br/>value = [7, 0, 4, 4]<br/>class = A>, fillcolor="#f8ddc9"] ;
724 -> 730 ;
731 [label=<ID &le; 299.5<br/>gini = 0.594<br/>samples = 8<br/>value = [1, 0, 3, 4]<br/>class = D>, fillcolor="#f7d7fa"] ;
730 -> 731 ;
732 [label=<gini = 0.0<br/>samples = 3<br/>value = [0, 0, 0, 3]<br/>class = D>, fillcolor="#d739e5"] ;
731 -> 732 ;
733 [label=<ID &le; 396.0<br/>gini = 0.56<br/>samples = 5<br/>value = [1, 0, 3, 1]<br/>class = C>, fillcolor="#9ccef2"] ;
731 -> 733 ;
734 [label=<Ever_Married &le; 0.5<br/>gini = 0.375<br/>samples = 4<br/>value = [1, 0, 3, 0]<br/>class = C>, fillcolor="#7bbeee"] ;
733 -> 734 ;
735 [label=<gini = 0.0<br/>samples = 3<br/>value = [0, 0, 3, 0]<br/>class = C>, fillcolor="#399de5"] ;
734 -> 735 ;
736 [label=<gini = 0.0<br/>samples = 1<br/>value = [1, 0, 0, 0]<br/>class = A>, fillcolor="#e58139"] ;
734 -> 736 ;
737 [label=<gini = 0.0<br/>samples = 1<br/>value = [0, 0, 0, 1]<br/>class = D>, fillcolor="#d739e5"] ;
733 -> 737 ;
738 [label=<Profession &le; 2.5<br/>gini = 0.245<br/>samples = 7<br/>value = [6, 0, 1, 0]<br/>class = A>, fillcolor="#e9965a"] ;
730 -> 738 ;
739 [label=<gini = 0.0<br/>samples = 4<br/>value = [4, 0, 0, 0]<br/>class = A>, fillcolor="#e58139"] ;
738 -> 739 ;
740 [label=<Work_Experience &le; 7.0<br/>gini = 0.444<br/>samples = 3<br/>value = [2, 0, 1, 0]<br/>class = A>, fillcolor="#f2c09c"] ;
738 -> 740 ;
741 [label=<gini = 0.0<br/>samples = 2<br/>value = [2, 0, 0, 0]<br/>class = A>, fillcolor="#e58139"] ;
740 -> 741 ;
742 [label=<gini = 0.0<br/>samples = 1<br/>value = [0, 0, 1, 0]<br/>class = C>, fillcolor="#399de5"] ;
740 -> 742 ;
743 [label=<Work_Experience &le; 2.5<br/>gini = 0.735<br/>samples = 213<br/>value = [73.0, 56.0, 45.0, 39.0]<br/>class = A>, fillcolor="#fcf1ea"] ;
681 -> 743 ;
744 [label=<Age &le; 18.5<br/>gini = 0.721<br/>samples = 113<br/>value = [44, 18, 26, 25]<br/>class = A>, fillcolor="#fae5d6"] ;
743 -> 744 ;
745 [label=<Age &le; 16.5<br/>gini = 0.715<br/>samples = 43<br/>value = [11, 6, 17, 9]<br/>class = C>, fillcolor="#daedfa"] ;
744 -> 745 ;
746 [label=<ID &le; 1562.0<br/>gini = 0.609<br/>samples = 16<br/>value = [9, 3, 3, 1]<br/>class = A>, fillcolor="#f3c5a4"] ;
745 -> 746 ;
747 [label=<Family_Size &le; 1.5<br/>gini = 0.531<br/>samples = 14<br/>value = [9, 1, 3, 1]<br/>class = A>, fillcolor="#f1ba93"] ;
746 -> 747 ;
748 [label=<ID &le; 633.5<br/>gini = 0.34<br/>samples = 10<br/>value = [8, 1, 0, 1]<br/>class = A>, fillcolor="#eb9d65"] ;
747 -> 748 ;
749 [label=<gini = 0.0<br/>samples = 1<br/>value = [0, 0, 0, 1]<br/>class = D>, fillcolor="#d739e5"] ;
748 -> 749 ;
750 [label=<Graduated &le; 0.5<br/>gini = 0.198<br/>samples = 9<br/>value = [8, 1, 0, 0]<br/>class = A>, fillcolor="#e89152"] ;
748 -> 750 ;
751 [label=<ID &le; 1064.5<br/>gini = 0.444<br/>samples = 3<br/>value = [2, 1, 0, 0]<br/>class = A>, fillcolor="#f2c09c"] ;
750 -> 751 ;
752 [label=<gini = 0.0<br/>samples = 1<br/>value = [0, 1, 0, 0]<br/>class = B>, fillcolor="#47e539"] ;
751 -> 752 ;
753 [label=<gini = 0.0<br/>samples = 2<br/>value = [2, 0, 0, 0]<br/>class = A>, fillcolor="#e58139"] ;
751 -> 753 ;
754 [label=<gini = 0.0<br/>samples = 6<br/>value = [6, 0, 0, 0]<br/>class = A>, fillcolor="#e58139"] ;
750 -> 754 ;
755 [label=<Work_Experience &le; 0.5<br/>gini = 0.375<br/>samples = 4<br/>value = [1, 0, 3, 0]<br/>class = C>, fillcolor="#7bbeee"] ;
747 -> 755 ;
756 [label=<gini = 0.0<br/>samples = 1<br/>value = [1, 0, 0, 0]<br/>class = A>, fillcolor="#e58139"] ;
755 -> 756 ;
757 [label=<gini = 0.0<br/>samples = 3<br/>value = [0, 0, 3, 0]<br/>class = C>, fillcolor="#399de5"] ;
755 -> 757 ;
758 [label=<gini = 0.0<br/>samples = 2<br/>value = [0, 2, 0, 0]<br/>class = B>, fillcolor="#47e539"] ;
746 -> 758 ;
759 [label=<ID &le; 771.5<br/>gini = 0.626<br/>samples = 27<br/>value = [2, 3, 14, 8]<br/>class = C>, fillcolor="#c0e0f7"] ;
745 -> 759 ;
760 [label=<Var_1 &le; 2.5<br/>gini = 0.519<br/>samples = 9<br/>value = [1, 1, 1, 6]<br/>class = D>, fillcolor="#e683ef"] ;
759 -> 760 ;
761 [label=<Spending_Score &le; 1.0<br/>gini = 0.667<br/>samples = 3<br/>value = [0, 1, 1, 1]<br/>class = B>, fillcolor="#ffffff"] ;
760 -> 761 ;
762 [label=<gini = 0.0<br/>samples = 1<br/>value = [0, 0, 1, 0]<br/>class = C>, fillcolor="#399de5"] ;
761 -> 762 ;
763 [label=<Family_Size &le; 2.0<br/>gini = 0.5<br/>samples = 2<br/>value = [0, 1, 0, 1]<br/>class = B>, fillcolor="#ffffff"] ;
761 -> 763 ;
764 [label=<gini = 0.0<br/>samples = 1<br/>value = [0, 1, 0, 0]<br/>class = B>, fillcolor="#47e539"] ;
763 -> 764 ;
765 [label=<gini = 0.0<br/>samples = 1<br/>value = [0, 0, 0, 1]<br/>class = D>, fillcolor="#d739e5"] ;
763 -> 765 ;
766 [label=<Profession &le; 0.5<br/>gini = 0.278<br/>samples = 6<br/>value = [1, 0, 0, 5]<br/>class = D>, fillcolor="#df61ea"] ;
760 -> 766 ;
767 [label=<Ever_Married &le; 0.5<br/>gini = 0.5<br/>samples = 2<br/>value = [1, 0, 0, 1]<br/>class = A>, fillcolor="#ffffff"] ;
766 -> 767 ;
768 [label=<gini = 0.0<br/>samples = 1<br/>value = [0, 0, 0, 1]<br/>class = D>, fillcolor="#d739e5"] ;
767 -> 768 ;
769 [label=<gini = 0.0<br/>samples = 1<br/>value = [1, 0, 0, 0]<br/>class = A>, fillcolor="#e58139"] ;
767 -> 769 ;
770 [label=<gini = 0.0<br/>samples = 4<br/>value = [0, 0, 0, 4]<br/>class = D>, fillcolor="#d739e5"] ;
766 -> 770 ;
771 [label=<Family_Size &le; 4.0<br/>gini = 0.451<br/>samples = 18<br/>value = [1, 2, 13, 2]<br/>class = C>, fillcolor="#77bced"] ;
759 -> 771 ;
772 [label=<Family_Size &le; 1.5<br/>gini = 0.388<br/>samples = 17<br/>value = [0, 2, 13, 2]<br/>class = C>, fillcolor="#6eb7ec"] ;
771 -> 772 ;
773 [label=<Graduated &le; 0.5<br/>gini = 0.593<br/>samples = 9<br/>value = [0, 2, 5, 2]<br/>class = C>, fillcolor="#aad5f4"] ;
772 -> 773 ;
774 [label=<gini = 0.0<br/>samples = 3<br/>value = [0, 0, 3, 0]<br/>class = C>, fillcolor="#399de5"] ;
773 -> 774 ;
775 [label=<Work_Experience &le; 0.5<br/>gini = 0.667<br/>samples = 6<br/>value = [0, 2, 2, 2]<br/>class = B>, fillcolor="#ffffff"] ;
773 -> 775 ;
776 [label=<Var_1 &le; 4.0<br/>gini = 0.5<br/>samples = 4<br/>value = [0, 2, 2, 0]<br/>class = B>, fillcolor="#ffffff"] ;
775 -> 776 ;
777 [label=<gini = 0.0<br/>samples = 2<br/>value = [0, 2, 0, 0]<br/>class = B>, fillcolor="#47e539"] ;
776 -> 777 ;
